LAYER 1
-5.640754747412577430e-01 6.012876163018636699e-01 2.126995005575575970e-01 -4.237374570274556884e-01 -8.345572551683622109e-01 -2.093456179346953050e-01 -9.523950434087158357e-01 -8.565236382140493099e-01 -8.343999299871867059e-01 4.519997446435977118e-01 -3.677294336682213061e-01 3.616446913917295003e-01 8.031666643987300791e-01 4.211544486919471808e-02 -5.860327192485170755e-01 -8.650379662858975749e-03 -9.251004914558069725e-01 -5.425646865171773747e-01 6.061794922266721120e-01 -3.338696792881068465e-01 2.171498598566861116e-01 -8.258891843166082936e-02 -3.274319487837649145e-01 3.693487510440114363e-01 6.282640719513239436e-01 -3.955158944495857920e-01 4.650857311742517819e-01 1.853985351517843938e-01 3.383841830204254997e-01 -5.712341182053022326e-01
-7.859476086877430490e-01 5.616451393703025818e-01 -8.594593961114465053e-01 1.347383110595510303e-01 -2.302521775400390158e-01 3.448421632514115931e-01 2.952042292993084516e-02 -8.488217337490753245e-01 9.414372491603573145e-01 3.279719798107945117e-01 1.234797830347167391e-02 9.441312789472671163e-01 3.627186644242657021e-01 3.504641439028688410e-01 4.347176843961442216e-02 -1.950430212426859100e-01 -3.343265583381920258e-01 -1.147311187899380247e-01 -7.406067169809755768e-01 -7.040578117573488282e-01 -4.169512863142872394e-01 -4.270224288872870311e-01 4.364522004832467328e-01 -1.788221668990976898e-01 -5.717879277117450254e-01 -9.638079575048865699e-01 1.040069948826540802e-01 4.594054783028633793e-01 6.117314363902737195e-01 1.024357909257103127e-01
-6.336562589338408102e-01 3.554619657170321467e-02 -6.840255291950987360e-01 -5.415886295196183919e-01 -5.024725665446607703e-01 -4.707576443348120421e-01 -2.634710314603938563e-01 5.264785266048013224e-01 8.352136353919348277e-01 -5.883372268304962738e-01 9.898936183708548775e-01 -6.555201509585946162e-01 -1.845802544490580122e-01 -8.017475649779708391e-01 4.109716825257312411e-01 5.711940068927991998e-01 -8.770398452940668665e-01 8.007757112608544503e-01 7.115481807835974948e-01 8.858740108412292980e-01 8.533534143975449737e-01 -4.857741801644992474e-01 3.829227717066552295e-01 8.664692190817022688e-01 9.088405828802277320e-01 7.345609025566097738e-01 -9.749246368415183106e-01 -6.125738245772127666e-01 -9.311082697557386822e-01 -3.842329911799442499e-01
-8.649484483937899260e-01 2.811148052105019168e-01 6.798921250117357928e-01 6.669174245526279243e-01 -1.989351584643683779e-01 -9.167437551002048934e-01 8.678165672438702405e-01 3.323203508102157144e-01 4.920692399114172666e-01 -4.115230574198947000e-01 -3.179558538966462677e-01 1.966345732980689931e-01 5.944540055358826791e-03 7.582542603331139386e-01 4.690189693233381973e-02 5.628277785928692545e-02 -6.133577281931312797e-02 -6.204149195015684626e-02 4.948983911164184235e-01 -7.053520728295801234e-01 2.619951147869967745e-01 -2.040599622431680249e-01 -3.823889582917623375e-01 -4.191512514606001716e-01 -7.008833325818051296e-01 -1.820923549482746928e-01 1.253207792760486772e-01 -5.909769399671400691e-01 1.710664718751380153e-01 -4.598477694943219340e-01
2.648168718408230315e-01 1.679441818203719627e-02 -8.619607770729320606e-01 1.410711644225501882e-01 1.998185411895039287e-01 3.628505712360428070e-01 7.454881274036684324e-01 -4.200094141645471790e-01 -7.598250179118481995e-02 6.988917170345447794e-01 6.209225205676449644e-01 -8.638448162098111283e-01 8.528871976337264460e-01 -3.562899058470960778e-01 8.536435031569664655e-01 5.629409449848803426e-01 -5.169026765659991973e-01 -3.396745464215960020e-01 4.534502650427247872e-01 4.164587290472965275e-01 -9.125876931476581966e-01 -9.948068698134826526e-02 -2.021031913994426610e-01 -4.293545135674912139e-01 -4.356166498680802412e-02 4.661416381352354588e-01 6.548666157233258289e-01 -7.732753871522386468e-01 8.427513365104739584e-01 7.029074214077939420e-01
1.413496918930279289e-01 -7.931870512225571712e-01 2.792659286271117480e-01 6.740877936504594548e-01 1.634681160435480507e-01 9.436542170092074855e-01 3.403591894008937135e-01 -2.110754527527496371e-01 -8.238074785356297447e-01 -6.790819230350042535e-01 -3.297773952173357337e-01 -8.080741929854342587e-01 6.462907257129322236e-01 -5.616241489677700205e-01 -2.550875394296274745e-01 -6.150450249980032869e-01 8.553757062250002541e-01 5.535236605326432358e-01 7.469165557085046814e-01 -4.818709942032972648e-01 4.444710845336634630e-01 -8.842143090725835819e-01 -5.444252778140357130e-02 1.815416044613937796e-01 -3.952315386462377234e-01 -5.728129548497391532e-01 6.662421508167497564e-01 -1.310645897072459931e-02 2.573209784897054764e-01 2.668555023492658052e-01
5.044785819542456640e-01 2.111802445363253344e-01 -6.593375534761518608e-01 -6.256505822645401782e-01 -8.630558074777656685e-01 1.948117203773558348e-01 -3.905638152341477376e-01 3.902885159423754580e-01 5.145517563370978209e-01 -2.306025552056658601e-01 4.570868365926645804e-01 4.885723881753305520e-01 -8.349396711922154601e-01 -3.797832583659699335e-01 3.674264412515393374e-02 -8.265427985978122116e-01 -1.312626688694251698e-01 4.030623146269385337e-02 6.185581495344874003e-01 5.322683698052821377e-01 9.933591253910616370e-01 5.377838309550453388e-01 -4.877881551708160845e-01 -2.548327899525255624e-01 3.307292893992546112e-01 7.093643602044252816e-01 8.068832880255165652e-01 -9.910311729049989804e-01 1.494608126992724717e-01 -4.565872538787170143e-01
1.039913111165642334e-01 1.719123366747539183e-01 -8.723595903651801819e-01 3.242445905716540011e-03 9.436893306833853412e-01 -4.704171031223907118e-01 -8.230350102857240113e-01 1.853007625684857107e-01 -9.612987649621496100e-01 5.124725193733417061e-01 9.172934013429627775e-01 5.308760395203555582e-01 -6.717549464285135219e-01 3.964917862127101955e-01 -6.271975263471707418e-01 -1.144878846011248008e-01 5.134174965582531946e-01 1.822128022136548786e-02 -8.542159344897053419e-01 -1.114374095453205538e-01 -7.341995448438349836e-01 -9.061655922573346178e-01 -4.171333818259634896e-01 -3.542803321655381144e-01 -7.024556335408227437e-01 -6.302871464244848010e-01 -7.413970118546064914e-01 6.109159378367008397e-01 -3.398676605320134492e-01 -3.122033508002486357e-01
-4.991825225118182718e-01 5.413880255852205892e-01 -6.132436807462173789e-01 5.091689335186595500e-01 4.340518261978245640e-01 -8.986533976059258855e-01 -1.529672406388855599e-01 1.837763971756796177e-01 -6.986659813985329759e-01 5.460005806662724392e-01 6.217237749553243820e-01 5.101884855092435611e-01 5.407416771283641843e-01 -1.902781547076917157e-01 -5.023188101982696274e-01 -9.366295577939736106e-01 -2.981812039282860649e-01 -2.542112651212184993e-01 -2.357704263318867177e-01 2.987296818892115624e-01 -3.474068708165549690e-01 -5.598362790791724386e-01 1.888017068194753900e-01 -5.049728413483989264e-02 5.601930780801964715e-01 -2.675594296289742768e-01 5.218835460390882641e-01 3.083562615039581178e-01 -4.638258104102432888e-02 -6.337665574357218556e-01
7.688710007897334719e-01 5.189999484766230076e-01 -5.859530437587621154e-01 -3.574988392798683634e-02 1.955747373927989585e-01 -3.590857382401486664e-01 -4.162022158029030638e-01 7.091248646163554881e-01 -2.686300371504268814e-01 -9.769497766675017125e-02 -4.233044012306450554e-01 9.697738354975484754e-01 -1.064077655224970886e-01 6.620459298700622774e-01 5.223512430944274865e-01 6.437441382547204327e-01 -9.061803361510718524e-01 4.208999546128915359e-01 -4.677105829902603595e-01 2.287712842776143951e-01 -9.876135807996004878e-01 -2.326501654877513037e-01 -2.229086369842538939e-01 9.819568478831421920e-01 5.899761240324483680e-01 9.919664912989822891e-01 -6.269572412593744648e-01 -2.219159554073615315e-01 4.867496223699661062e-01 2.769874413439938898e-01
-9.495831239093863729e-01 -2.040788780288287363e-01 -7.140783206728718024e-01 -2.115137454755777746e-02 -6.273004761459215484e-01 -8.148920371511043648e-01 -4.908174160036289368e-01 3.397453730729953492e-01 6.487327247934548957e-02 9.266233308486968578e-01 5.119989119112029474e-01 4.250048896535101317e-01 -6.839159394476770348e-01 -1.399881767709518776e-01 7.110051480800645418e-01 3.657214063348857014e-01 8.181266334483006109e-01 1.762073574396727516e-01 7.536637808357393720e-01 -9.095547105088273021e-01 -4.604335789255586953e-01 9.738996942301274551e-01 3.917042223421116631e-01 7.857342907414290867e-01 -1.002497804256510250e-01 2.578046623457230790e-01 5.010031603897753261e-01 4.300093906303481539e-01 2.544542880383626748e-01 8.985845487136610021e-01
-7.812799948762076951e-01 -9.774567359701664682e-01 4.285065798734941644e-01 -7.426871968044777006e-01 2.073670979534456560e-01 -8.364597563510711709e-03 2.562068232963046199e-01 -6.420287787040421801e-01 -8.982733444113093491e-01 4.594287116573119167e-01 -9.175921089916752038e-01 7.346914021635335690e-01 7.993938484200979744e-02 -1.660757401441252945e-01 -3.724233378083479096e-01 -2.174714390496237382e-01 -6.659496568531486638e-01 9.302093591154805274e-01 -2.642925845341905777e-01 2.958094240479316461e-01 6.219368895201458081e-01 1.439393073252910327e-01 -2.622412587433098352e-01 -6.976148385405385177e-01 8.132416107201618782e-01 9.860864507302153914e-01 -5.094501665136423885e-01 -1.536413748600806706e-02 -5.215034295413845111e-01 6.706544019927025424e-01
-4.449350680091188059e-01 7.096461271732120712e-01 7.186961213167836204e-01 3.812514686411985765e-01 -8.140249501916139163e-01 -6.485102525282602226e-01 -7.503953707599196887e-01 -5.974071954742474766e-01 5.032814128008559346e-02 6.399256644268570549e-01 -2.038300459516699803e-01 4.207540629635864726e-01 6.935681713285686278e-01 -5.422315696569164345e-01 -7.190091601135796262e-01 -3.073542567502164369e-01 2.443513839130876386e-01 -9.712388898039306939e-01 9.369876610751158852e-01 -5.899357968073772884e-01 6.712449028864568845e-01 2.394498132542535185e-01 1.836216519570902650e-01 -7.833126688353326816e-01 -5.070899816160205908e-01 5.233816445768034731e-01 6.430922237911586292e-02 -6.392712592366778246e-01 -7.248315167528962544e-01 5.551062593304210147e-01
-3.653595689214276798e-01 -5.320506656536214685e-01 -1.883008143893725173e-01 5.052785360200955367e-01 -5.176076947857919386e-01 -4.488690870255536702e-01 6.961410935773674202e-01 6.947555757348637950e-01 -5.821321276989629284e-02 6.135000036147610913e-01 6.353710950544999569e-01 2.786169322098803747e-01 -9.875507216530615695e-01 2.026280050419037582e-01 -9.436562310070389925e-02 -4.653643513534129195e-01 5.478835968607247420e-01 -8.121479571378010798e-01 -7.185979795153828453e-01 2.790966224706725174e-01 -3.774655414344160742e-02 -3.802845418512830755e-01 8.762687344170530523e-02 2.864658440129913206e-02 3.172767965665250767e-01 9.579439066660921931e-01 3.518541391842193167e-01 -3.896836643422053187e-02 -4.652801824296820543e-01 2.861898743186117589e-01
-7.795183329713789577e-01 6.417582922750658669e-01 6.896546278358875459e-02 -5.517511695691932339e-01 8.871828281923338846e-03 6.995572758310384387e-01 -9.275393135115785892e-01 7.098527848621862812e-01 -7.367872880123512713e-01 -3.047587426695934076e-01 2.417163991210714569e-01 -7.320153417581164446e-01 -4.230715110519687183e-01 -7.683717185245434941e-03 -9.249163228362767830e-01 7.031000407697338694e-01 7.238302222009678211e-01 5.738381199550035561e-01 3.820680851145488721e-01 8.623048765361073231e-01 -7.716686403622170787e-02 7.122436750479257395e-01 -4.180613134204470560e-01 -3.198551331251700547e-01 5.239567284502204964e-02 -6.170384828823098911e-01 -9.200253671083553630e-01 8.565612816220556924e-01 6.433589429361735723e-01 -3.313927080603905062e-01
4.496198729140524208e-01 -9.638540367555716859e-01 6.141973731244700918e-01 5.687761210019582903e-01 -8.848611052684093314e-01 7.113506532876400223e-01 7.418365680349121583e-01 -4.407635893477818145e-01 -4.664760445855499482e-02 -7.925422592334041560e-01 -8.312313095845866862e-01 -5.940783271064081772e-01 2.294018586846280350e-02 -4.611824183433788082e-01 1.537590955901155243e-01 -8.756293674500507107e-01 3.731241384985988785e-01 7.778486798672248348e-01 -3.622860987217298989e-01 -4.790683736426325501e-01 6.776673020938595027e-01 2.241268562514768803e-01 6.316872585862334244e-01 3.451916738552104347e-01 2.259494506247075873e-01 4.638479933191665960e-01 1.285594473399369053e-01 -2.707253333149133023e-02 -6.587701565248956781e-01 -6.473348960362947102e-02
1.098843137187206498e-01 -3.120762618169043989e-01 -5.869491761189904455e-01 4.292027582664079688e-01 7.942310827672198759e-01 3.441874207685000631e-01 -7.039285261231669200e-01 -9.199113383652832709e-01 2.903907277814834487e-01 -8.755664242103402550e-01 6.582555942152734652e-01 3.639532599803831925e-01 -1.297537053820283504e-01 9.330695196705467431e-01 -5.951268964286193786e-02 -6.994871558900970232e-01 1.194772932854131220e-01 -7.809518354937232676e-01 8.222625042674414075e-02 6.479556603197484943e-01 -2.205946246291095036e-01 2.863641828848226822e-01 -4.664483383361086588e-01 7.882912092000928794e-01 4.007470274245905628e-02 -7.027141871604505319e-01 6.546448016033235007e-02 -3.126796369268733944e-01 1.346293116178844951e-01 5.439469429499972364e-01
4.347173187341641931e-01 7.648251116096593805e-01 -4.037327109676747128e-02 9.003316540812256186e-01 -2.486036945626279859e-02 -5.612014641015861116e-01 7.851421062155821140e-01 4.169790454148414316e-01 2.873759391013201991e-01 -2.569118680466899729e-01 -8.060858363938250282e-01 5.427816084058303403e-01 8.391305279558454178e-01 5.225596754685877254e-01 9.985456902945439861e-01 6.631173115096749004e-01 4.378553379970819837e-01 7.823228820519134707e-02 -9.050341291737857841e-01 -6.295194360608993289e-01 9.641207463223120389e-01 5.975309984412959796e-01 -5.842210116830659494e-02 1.739633401084594855e-01 2.373363866029565283e-01 -1.664912180688751242e-01 4.181988944396162200e-01 5.065952378814855273e-01 -7.803634474780631880e-01 -6.623783070299658071e-01
-3.893029447751950034e-01 7.657720572063269060e-01 2.236280690434770957e-01 5.321000846485881564e-01 -4.923409986284199569e-01 -6.873828779169692815e-01 -8.021257286466321190e-01 -4.773239245844280720e-01 3.173473168743716766e-01 -4.901884659609838657e-01 1.406862048971779799e-02 1.868784028002534736e-01 -4.587670832857118075e-01 3.655325839318601666e-01 3.449732430601992750e-01 -6.231953753962868880e-01 -3.492020759465468416e-01 -3.250749221311686199e-01 -4.906811799001666863e-01 -6.019784889084496271e-01 9.547355281472165167e-01 4.001452563145919683e-01 -2.348793060694487345e-02 2.032923213092265868e-01 7.228215083575397770e-01 -8.273883925143605822e-01 -9.804945244519751579e-01 5.190719524793088180e-01 -8.691758467001671207e-01 8.528393050527118824e-01
8.237641899346315189e-01 -2.539573871859075460e-01 -8.340675995264794640e-01 -2.898111205426212589e-01 -5.701022063060197098e-01 -2.660960190196028918e-01 2.476047940329797470e-01 1.980398935545555350e-01 7.675778486199114070e-01 -2.286304378649850477e-02 7.327425874965642905e-02 1.610460346390523156e-01 -1.345635086011154335e-01 8.629080217309421652e-01 2.227919786096979049e-01 2.189327307041697424e-01 -8.866462647031612132e-01 4.484291235007324961e-01 -3.824685246611132516e-01 1.969626813644809182e-02 1.385974162191958570e-01 3.043977795923047402e-01 -5.584851585631038784e-01 -2.222235965764405297e-01 1.080900319060829062e-03 5.440006444392577745e-01 5.415873790620047146e-01 -5.418632533876219792e-01 -1.547400142429977699e-02 -7.901731610528064387e-01
2.781416514216950020e-01 -7.406892055742972936e-01 6.421801924896164415e-01 -9.259852243838715413e-01 8.907515517020581086e-01 -7.489176574256055652e-01 -9.698431708652501815e-01 9.867427340583434514e-03 2.345378005330152060e-01 -8.072288768567132955e-01 -3.194800017494416888e-01 3.630602321983373848e-01 1.236969774899709940e-01 6.187948529159914557e-02 2.649272743221939841e-01 -5.784233050454608005e-01 5.477204818844612078e-01 -6.802805414024550856e-01 -1.280943230074009787e-01 8.584025210684103069e-01 -9.677934909674190678e-02 2.761786429264652121e-01 7.391504102302575152e-01 -1.453562307115188190e-01 -3.663545133765442330e-01 -6.981899448156725363e-02 -6.889493595263558312e-01 -2.578176874968047816e-01 -6.513390338956988046e-01 -5.009993250597810643e-03
6.864400043912741722e-01 -7.470007012368835575e-01 6.886521745067422096e-01 -3.534299371404425738e-01 -5.073529055817289635e-01 2.019758121245116556e-01 9.705674454840285126e-01 -7.200413399297393990e-01 -5.785978138365388546e-01 -4.243334618131606728e-01 -3.465072963650916993e-01 4.711256286645235658e-01 -2.031653742057484280e-01 -9.874628656654869108e-01 1.446507458542751756e-01 5.196319815528347430e-01 -7.033533267893843366e-02 -9.950082620062650207e-01 4.145237348316055392e-01 6.080311184698938831e-01 -6.286507728578374365e-01 -8.487063041580935607e-01 9.054711396647012744e-01 -9.013320402008897503e-01 -1.031847514517905129e-01 2.433223286662267171e-01 -1.013551188562262784e-01 -5.729760905288541206e-01 3.654893850502327624e-01 -8.914487226392764363e-01
-9.511928664117936805e-01 -5.495653089768925970e-01 -4.787070832828188571e-01 -2.053690073323981569e-01 7.332325109944799468e-01 5.628788799841761836e-01 -5.789822865755118730e-01 -3.461469551706843895e-01 -2.294261301339739489e-02 9.934304620172187406e-01 -9.736039215377592093e-01 -3.890448670600434866e-01 -4.886305593342492593e-01 1.377226624450316184e-01 -1.629575054564222913e-01 6.440340943818445574e-01 -2.549831381112266371e-01 6.389340579703430834e-01 -9.430227683948579909e-01 -1.102057607631568015e-01 4.458802686475786814e-01 -6.190464577780629973e-02 -4.837951449243276247e-01 -6.277344125742128078e-01 -5.183436321756060838e-01 6.865236662293188186e-01 -7.773985806189338543e-01 6.177617571737883395e-01 -1.714693428664966213e-01 9.401092764997653894e-01
7.732756250667043307e-01 2.655241533810936971e-01 -9.702844015601905792e-01 -7.690370912761546052e-02 7.998234195518283407e-02 2.005878731907664303e-01 8.831281929986434243e-01 4.053541574867571828e-01 6.173012868317113711e-01 3.759557428656172817e-01 5.816100969105733043e-01 -5.948012892501599591e-01 -9.803114316376349002e-02 -3.086488633192239206e-01 -7.109934939477551286e-01 2.322234047412274904e-01 -5.342336306550339309e-01 -8.911896004950703443e-01 3.091608860941588155e-01 -5.054259970384702427e-01 -8.969582589232343306e-01 5.412150536113657928e-01 -8.110539040276578682e-01 4.868637007707978803e-01 -7.281740303939407966e-01 -8.888697728625969408e-01 9.463539849443578511e-01 -3.925224102628348533e-01 3.287582507182336133e-01 3.201044372547263706e-01
-6.395341815778974315e-01 1.406787163597209567e-01 1.075746952442515614e-01 -1.993749220446907611e-01 4.903765076297630365e-01 7.714618750401682767e-01 6.925636629938436428e-02 -6.527366294421590442e-01 5.040821411046225720e-01 5.350809241886700374e-01 2.887614099119424349e-01 5.317847127570241028e-01 3.664810250037395800e-01 3.613271176187407008e-01 -9.199519318283553293e-01 5.192148167124046587e-01 -1.692461184696105736e-01 6.174864236738775158e-01 2.524960692897602055e-01 -4.694621091003248203e-02 -8.803085104872085953e-01 -3.010377243015778248e-01 -3.053618631198844469e-01 -4.023732811775253548e-01 -2.406852738685185678e-01 -1.992100640348566376e-01 -8.376568442952005977e-01 1.800423650272866549e-01 2.233422166680907317e-01 -8.363234004237005692e-01
-5.548139388248294335e-01 7.035067853803147475e-01 -5.343640797845117252e-01 2.603444743095248981e-01 1.084659502946794252e-01 -9.794841960038895845e-01 -3.004540346698365560e-01 -1.245671481829553340e-01 4.348574551958472867e-01 6.168829932238706348e-02 -7.324095975010307402e-01 2.826814614512302981e-01 -7.967063747338638535e-01 7.476369215062375062e-01 4.684257035174848038e-01 -7.626948725750462010e-01 7.803249736381809853e-01 -1.306194067212107512e-03 3.626752430432798047e-01 -4.626125423387741353e-01 -6.374605001817024164e-01 7.569902357462363618e-01 -9.444989928690892267e-01 1.777866663328324659e-01 7.163579935645338903e-01 3.817188307701830929e-01 -3.356185988569371226e-01 9.539025341461209173e-01 9.176259215517394985e-01 -9.758328859707690039e-01
-6.652464962683541927e-01 -8.017074887003203809e-01 8.563027291785130224e-02 -4.348106194198386731e-01 4.791570528626127867e-01 -7.713473510881552198e-01 9.547686525715015637e-01 -5.781182552874657432e-01 8.580361137817607009e-01 -7.220172009633079035e-01 3.940815973988116561e-01 -8.024113616516448388e-02 1.697166736407482723e-01 -8.219606194708766189e-01 -8.933759441664679279e-02 5.600330182259327660e-01 -3.990454982771673986e-01 -9.969965689934272568e-01 -6.413919210483034483e-01 2.993687353976071108e-02 -7.610143402412239411e-02 -2.035656911866796648e-01 7.189166329434037994e-01 5.588193286231963874e-01 2.030105568743205691e-01 -7.076590937917646151e-01 1.305176581340516950e-01 -6.529876825829492581e-01 -5.801703442364161134e-01 -5.844701724072896010e-01
-9.443886857519283584e-01 -6.621021545739436132e-01 -4.085174189031419711e-01 -8.968119514364396583e-01 8.660999009719261288e-01 -7.926458092213994888e-02 6.672184005783030614e-01 -5.379085084453369969e-01 -7.436123492187096673e-02 5.333822800641703221e-01 -1.524169258326082410e-01 8.117375931494430485e-01 3.559734863704122620e-01 -7.972245588525568305e-01 -5.193955561744878491e-01 6.896835312401259355e-01 3.878438325496154082e-01 1.111587469793371419e-01 -7.169838009073212781e-01 -6.789039504105292000e-01 9.910616020074438648e-01 -3.783576372319152892e-01 8.132240709229547893e-01 5.970663458330469631e-01 7.207725539759080036e-02 3.401401200100051536e-01 -5.968816033078794270e-01 5.267128199687949319e-01 -7.864307838696971142e-01 -6.102058230350491108e-01
-4.223584429834130738e-01 2.884414015026173228e-01 4.303933481497288494e-01 9.539567883010644511e-01 1.784751407269566936e-01 -4.292399875490573447e-01 6.309026088904627905e-01 5.128369793497928875e-01 5.933187589077197899e-01 3.153382597893559236e-01 -7.412523150033683006e-01 7.014372478276533762e-01 5.670350757644389006e-01 -4.134684693584065318e-01 4.440267288636592369e-01 -4.493512584785317454e-01 -3.589663210234388391e-01 3.950204328913020646e-04 9.223813949624837250e-01 -9.262055442006946748e-01 -5.092510686613047621e-01 -2.480983467892670102e-01 7.885653116972515253e-01 8.900668920361762826e-01 -6.415820306814348228e-01 -5.588047938599309816e-01 -6.667424554124306013e-01 -7.545274359248235196e-01 3.441283675927677699e-01 -1.662190235814244854e-01
-8.006825791339873266e-01 2.665239903262550669e-01 -1.527812164642581294e-01 8.646651670782818933e-01 9.733597912377742745e-01 6.252523393938340668e-01 2.266162567435845432e-01 -8.435660258195398775e-01 -5.366623917743287286e-01 6.858410374963921363e-01 5.555106453844382841e-02 -8.672150868118495559e-01 -3.096727608315528180e-01 -7.748019827977459251e-01 7.354292137980675825e-01 9.622565884993659058e-01 6.952959315489655179e-01 -9.425404866461306597e-01 7.604067826277964848e-01 -4.818600217884416725e-01 -1.891963203769277957e-01 2.423586655790803679e-01 7.060470791925810286e-01 2.730134326501119091e-01 7.798976942016691005e-01 4.979963030211487229e-02 3.868203745263552040e-01 -3.965887674182209111e-01 4.917136858685637879e-01 1.313665381473427818e-01
1.254301485547384409e-01 8.253296250005754953e-01 -3.468501145529425678e-01 3.018348060853714987e-01 -2.317020372954652352e-01 -1.765517239163534313e-01 6.249042973159877334e-01 8.099824589787025797e-01 7.758076297298881485e-01 4.120841615403658675e-01 -7.332863671149794094e-01 4.234040347277039373e-01 7.923515296518592876e-01 3.947829512725242740e-01 4.534983715226987844e-01 1.838477479241331647e-01 -5.529003632918305655e-03 -9.039515611606065981e-01 9.239832400570706650e-01 7.731148749111498297e-01 -8.351886791026823520e-01 -7.221266591551034342e-01 9.782971644139195622e-01 6.417631707624640303e-01 6.784758876509966452e-01 -6.014922394821173857e-01 8.554675752931357735e-01 -4.955525999328596054e-01 8.961580815702179237e-01 -9.454024058053447366e-01
-6.744970377000216732e-01 2.172010225950553597e-01 -5.817789132149187026e-02 -7.532971127455583282e-01 -1.566284037948171282e-01 -3.559823009567353314e-01 -8.298484073196950028e-01 5.618386227884206718e-01 4.769885733087988466e-01 9.024295267322901548e-01 -9.440508880920102097e-01 -4.080905724420187397e-01 9.802328909790793965e-01 -2.861196334302922306e-01 -3.652301552914212213e-01 -7.557618483287469324e-01 -6.096593366005762515e-01 -5.402722745834798168e-02 -8.285794245625346388e-01 -9.512539259051082663e-01 8.021529045083413134e-01 -9.587808830394723980e-01 2.496411386604566740e-01 -2.214488407342838361e-01 -2.501335685459058489e-01 -3.915724017656694311e-01 7.815918666785564017e-01 6.181920441660322396e-01 2.773733925052541682e-01 1.868752805630451430e-01
-8.131228664256898164e-02 3.582520286944814725e-01 2.737311294807987516e-01 -7.076296505719031904e-01 7.821585545891609481e-01 1.806292879251810424e-01 7.526726170463347021e-01 7.242432923509017906e-01 -9.068743476693743588e-01 -1.003676525196904312e-01 -4.013119070293112434e-01 1.392970405846499227e-01 6.687900380581126569e-01 1.149967432329861011e-01 3.096192722162834365e-01 -2.787709779004621247e-01 -1.187233274849501669e-01 -3.380427043465427106e-01 -3.465110809383566415e-01 -1.637457331788116088e-01 -1.437092079376432463e-01 -1.710863767583988559e-01 6.634070142636627754e-01 4.668927597345528535e-01 9.489609152756006694e-01 4.946907976689773889e-01 4.994054483442377790e-01 8.482297879897673365e-01 -2.919236748262549752e-01 8.980027534511592080e-01
2.984974304062737449e-01 -3.428759651890699034e-02 6.869921047756739896e-02 2.102950582764444576e-01 2.307865300844674228e-01 5.783107016924411425e-01 8.701876172250523622e-02 3.397534278276967967e-01 -3.300531732454227152e-01 3.016027683224403177e-01 -1.791450188402258503e-01 -7.577865281044791068e-01 -9.569985342933832184e-01 9.606755432985870646e-01 -1.654953465049248396e-01 -2.500394346247977739e-02 7.848955995545874309e-01 6.842057072192290201e-01 8.970415774419242538e-01 4.712243826305961281e-01 -8.147640375862083006e-01 7.216757744785774475e-01 3.371881173828361611e-01 8.384617441266143389e-01 2.220199804856264059e-01 -7.287412228681868775e-01 3.122705341048263028e-01 5.372972399469543303e-01 -2.358377106693660130e-01 5.396290619939665412e-01
-9.194151548618120229e-01 1.398517217377542032e-01 4.181582713460698653e-01 -5.756983720007670113e-01 4.721531183925030684e-01 7.948538037764806274e-01 7.384218037502889853e-01 8.913102780825288285e-02 -2.430741238059057618e-01 -7.551645932351388479e-01 -9.708848825470098309e-02 3.366168494131162592e-01 -8.742978260315563688e-01 -5.407738720407747612e-01 -2.237616725124328895e-02 -7.865802227059235374e-01 8.734141152500244365e-01 9.003790575842224309e-01 8.466250995179486205e-01 7.072773682494434278e-01 -5.545946869772661048e-01 -2.505827656719210594e-01 6.478858908983080589e-01 8.760646213912799407e-01 6.651192851344236434e-01 -4.633530949421691969e-01 8.731097017481893596e-01 -6.448437277431727788e-01 -1.937936286295958432e-01 1.685517827087526788e-01
3.357090643589638601e-02 5.589365097966855211e-01 -6.945499348886137181e-01 -5.590915636205359140e-01 1.223362800913772030e-01 1.833498423812564559e-01 -3.424549612183377389e-01 -2.812253556716566849e-01 7.268287683751713246e-02 -2.708218515988517483e-01 8.869000754485122096e-02 5.979324105130559008e-01 5.825795027357785205e-01 -5.811711886505009916e-01 -5.829548414689789126e-01 2.003804655411009772e-01 6.681357318363446707e-01 4.192105008835349256e-02 -2.572078062209432470e-01 -7.093838144450042016e-01 -7.974942875662963671e-01 7.845316371870004746e-01 5.475352933585264648e-02 4.384830526599654554e-01 -7.545213511899107051e-01 -8.347678387429479097e-01 -6.504351365030737187e-01 3.755795798545457642e-01 9.277557242337222676e-02 -6.800046845279276164e-01
-7.373850825966069555e-01 4.293619560681788960e-01 -1.786454555640803743e-01 -5.235706754151865372e-01 -1.417510898404879087e-02 3.126039855558762626e-01 -4.847060093668104086e-01 1.458175037184892830e-01 2.327845046985943522e-01 4.491215187259660346e-02 1.967037551646581561e-01 9.256736784387632477e-01 6.148838144130136518e-01 -6.449302962472833745e-01 2.135212753448629541e-01 1.931042603688657711e-01 -9.904092067067141736e-01 6.725325220698051831e-01 -3.764273692411526095e-01 4.589811808956306693e-01 2.000702057510325982e-01 -7.849619303248474012e-01 3.765385879636733435e-01 1.100942440519766113e-01 2.093477443110375036e-01 -2.217697748635722235e-02 7.916384375837151044e-01 6.582121217006340341e-01 4.200241602525376511e-02 -4.189789713310184682e-01
-7.422274006792356493e-01 -1.613755695529087708e-01 5.615980321326735636e-01 2.640554007745934406e-01 -5.948278912979851896e-01 5.428208103403601159e-01 4.948831695528451147e-01 -6.237493453246764075e-01 -9.637337178399879578e-01 1.409332612871143364e-01 3.351968371259587687e-01 -1.562795280191105196e-02 -2.506962531862143018e-01 3.971005555999635450e-01 5.375235086618469077e-02 -8.139514889057530844e-02 9.281083172945836512e-01 5.982466013072603728e-01 -5.233632928806163376e-01 -4.252595252990392510e-02 5.010884498376285690e-01 9.315422210501882461e-01 2.911498038872756267e-01 3.803329654296399576e-01 -1.025419239284065531e-01 8.832133252828787418e-02 9.219755617403548875e-01 -1.811633983792108327e-01 -5.092830470110831786e-01 -9.396871216165575413e-01
-3.968264193265355622e-01 7.869462856021984531e-02 -7.899712916080628977e-01 7.954266200341304494e-01 -8.116163261361600822e-01 -1.841553412081864682e-01 -9.360944106212899518e-01 9.318123796257828939e-01 1.245046063828154359e-01 -9.107772954874646665e-01 -6.753549347303820782e-02 -1.839255316804933038e-02 -4.740733480215808537e-01 5.171334451792866105e-01 -5.983586656680022209e-01 1.244962504311559054e-01 6.528843171498002196e-01 -6.863093710413934456e-01 -5.074228008978307614e-01 -4.049641522764736989e-01 -4.664190360537412428e-01 3.173041136517143479e-01 7.726795709254662137e-02 -4.649762445561465007e-01 2.471157091697142316e-01 6.470288707691430607e-01 -6.224118107971903235e-01 -9.423789392601130688e-01 -8.841027932788824151e-01 2.095811115130390423e-01
6.074777666185637859e-02 -2.996050010738530167e-01 -4.468577990126341715e-01 8.919910215589376135e-01 -6.177225242117496684e-01 -9.149730330663587985e-01 -7.878288719765053072e-01 8.458932755635172329e-01 -5.801307234075611108e-01 8.011558682498119977e-01 6.380590215398487253e-01 -3.398645875896472157e-01 5.630391225843596192e-01 -7.674842461221565992e-01 -2.361200958218787338e-01 -2.544681670246054517e-01 7.453212992086549749e-01 9.739709539010964479e-01 2.251838916369237609e-01 3.062681444738275804e-02 6.564237937027727066e-01 -3.351701427096593910e-01 5.543069927153542187e-01 -2.886346369036041359e-02 -4.093733879603821402e-01 5.339735726482238709e-01 -6.088109161539341230e-01 6.790235461612307288e-01 -4.137629218754880212e-01 6.026887017317205525e-02
3.146521191190176370e-01 2.320734567649412328e-01 6.749089969885739559e-02 5.871043404511449015e-01 -1.492085569498111941e-01 -4.284294880820818108e-01 4.464185830987585368e-01 4.488135826215752799e-01 -2.755233588740668149e-01 -5.081855003102194734e-01 2.522653428649141438e-01 -2.740756877678874326e-01 9.419254387870600320e-01 8.032625890072206953e-01 -8.309591046167762451e-01 -7.263173997106480151e-01 -1.860078061936570881e-02 9.301217554447785973e-01 -7.314600253080648651e-01 -3.239847196196257717e-01 -1.344592825149467097e-01 -1.931509105905024060e-01 -4.900363215196287259e-01 1.806346419425221006e-01 -4.406004336894830398e-01 -9.304442790937048624e-01 -1.882510261253289921e-02 -2.367281835111651189e-01 -2.196488312025154932e-01 -9.329510933413636131e-01
3.768349373863711382e-01 9.348955419526241428e-01 3.816023699550875614e-01 3.078981170159834635e-01 8.046371465852969473e-01 -2.686570799720279235e-01 4.708567877428823656e-01 -1.688446907554859988e-01 5.289490908873573094e-01 -3.303348053971486564e-01 5.680350022973291724e-01 9.072858971579074172e-01 -3.894318849896427071e-01 -8.682881364429348992e-01 -2.581763077767615377e-01 -3.543423061465443835e-01 -6.679114167586275297e-01 3.262219017497613310e-02 -8.781828019352376780e-01 8.993154980354619576e-01 -6.852860974992497356e-02 8.064324144420195184e-01 -8.785186454130681222e-01 9.314468244345379400e-02 6.311903219403616760e-02 -3.353813286174106567e-01 5.255400086477112209e-01 5.776534264067463287e-01 8.332265255542029569e-01 3.963098802197648207e-01
7.860060321286125307e-01 5.804235718364619823e-01 -1.329676817441093339e-01 -9.054116338813551490e-01 7.823684979412098839e-02 -2.967822636181702278e-01 -3.152342405836756067e-01 -3.714935164728264128e-01 2.937826741681114906e-01 7.350393851587738725e-02 -4.334589099516504840e-01 -4.435011732611650048e-01 2.735117379356299394e-01 5.444233387341297359e-01 4.434122024844485699e-01 3.811546791854861782e-01 -2.192135526876235474e-01 9.877358971481901007e-01 -4.339758419855248295e-02 -4.545970703760671139e-02 -3.136077678534056057e-01 -3.344122889739636895e-01 2.516432379806100017e-01 -3.516059379130629381e-01 9.024774360351021096e-01 5.876825722050301737e-01 4.805686143264836785e-02 7.996248739582662024e-01 3.291577880039697063e-02 9.122661913974526859e-01
-1.598400509942288494e-01 4.113105891972246297e-01 2.177325793944887289e-01 -9.684359863574220073e-01 1.648496916638936272e-01 8.968295779875669060e-01 -8.711012748270073880e-01 2.141751474006586553e-01 3.095744650296096134e-01 -6.280859340724079254e-02 -3.233187905895527070e-01 -6.595387131151210225e-01 -6.654511382417908072e-01 -7.002477319215262286e-01 -6.978818201679968247e-01 5.968091971045291766e-01 -6.100664848887429326e-01 -7.135260419139104471e-01 4.786921965085074171e-01 -1.229644092829795948e-01 -5.905889293598698409e-01 -5.402783246749487400e-01 9.556432043057241366e-01 7.185398730765062414e-01 -3.281339292513958950e-01 -1.331018991533557683e-01 -4.293353276250748141e-01 1.546502316647267727e-01 2.625461279718742102e-01 1.685103335794176371e-01
8.868686100947499318e-01 4.363435208833571499e-01 -4.871853722370865225e-01 2.029539577056820865e-01 8.590782696803767049e-01 -6.266234042516154457e-01 -4.877849216369406493e-01 -4.758595359298423699e-01 3.943643292394287680e-01 6.709513419301346149e-01 -1.967374964642943647e-01 4.591157650656076117e-02 -9.043873700760487466e-01 2.728077273234135181e-01 -7.355490994459055187e-01 6.236605640798534855e-01 -6.708205736104870809e-01 -2.183248114821745856e-01 2.575959029573487435e-01 8.756286768128083153e-01 -7.390211139282241160e-01 -2.746167689441595394e-01 3.246214545976252586e-01 -7.223693280456331411e-01 -5.241581957065095665e-01 -6.153799120931809918e-01 6.717940354883717990e-01 6.102969030102489700e-01 -1.025108382108271127e-01 4.114863941245891499e-01
-9.496683672767934903e-01 7.287064346471164855e-01 6.626151699834015307e-01 -1.153671068807324007e-01 8.660970456391704486e-01 -5.383981076724171366e-01 2.766362366300024744e-01 3.511556278801743480e-01 5.280323334808345592e-01 -8.820004813495626594e-01 -1.464861362835602754e-01 -1.030440212919550846e-01 -9.243212492439920602e-01 -1.286029649736856462e-01 8.263370146535254923e-01 9.099772151653529040e-01 -5.794294032875163536e-01 -8.698961341184221485e-01 -5.664042141825844645e-01 -8.478576778819775228e-01 4.564557930970120081e-01 -7.572697069126967107e-02 6.381934043703546555e-01 1.054121668333169726e-01 -8.698980980793648010e-01 -2.800662766959811575e-02 -4.967312234471485954e-01 7.155725119572656778e-01 -5.787003537970460965e-01 5.501985852238986396e-01
8.307415734706928845e-01 -2.903982859465571442e-01 -9.422655641346464606e-01 8.234793353004474792e-01 3.583739009820869903e-01 9.789278704242748708e-02 5.905463348194733841e-01 -2.948523242933482891e-01 -7.780014585407225569e-01 -6.357342491192405909e-01 -3.616192171030249147e-01 2.067496877014440848e-01 -9.707282143073033831e-01 -5.294084101688936173e-01 -9.397234402474808901e-01 4.873116938530316911e-01 -4.995402700106536531e-01 -3.312498314182137360e-01 8.508549041112993816e-01 9.274931221623000654e-01 -3.010514859005073984e-01 5.133256489355408902e-01 -1.341711271950763451e-01 -7.051185612376277279e-01 -6.975630538733484931e-02 7.055399298320507162e-01 7.501696269820836704e-01 -9.003129970496234202e-01 9.922764661943106468e-01 -6.701969356900462360e-01
4.847577653411822007e-02 -9.397191031447736931e-01 -9.084765699773585945e-01 -1.404417972091545341e-01 -5.006332935999053824e-01 4.219936003260095214e-01 -2.815059317576901199e-01 9.709138557196183017e-01 7.746132220597615747e-01 -9.531070227948843510e-01 -7.917478938427096047e-01 -4.082459318393756309e-01 -6.128507694142504292e-01 1.551691931649563649e-01 -2.172203567353294673e-01 -3.421278371235820792e-01 5.775546246748808343e-01 9.243726154211850954e-01 2.707647281050291621e-01 7.586333879403820424e-01 6.037624390030646992e-01 -1.776394051658018169e-01 -9.851229980135010056e-01 -2.633267326789760499e-01 -9.866186591497183578e-01 2.263504069346249786e-02 6.347727415686492680e-01 9.307621071397113033e-01 -6.516664483516695361e-01 5.665964033589483417e-01
7.597716869706309106e-01 -4.214075739531681353e-01 -3.437793746804992945e-01 -4.321982400380035561e-01 -8.638494187070295816e-01 -3.124640615581826819e-01 -5.140718331299197752e-01 -2.354523994230316858e-03 -3.425585381538908541e-02 -1.586596246004900734e-01 -2.065473264899490013e-01 7.431501976801162535e-01 8.137073800000421686e-01 -6.712430874004851056e-01 6.483012959948585285e-01 4.005428346157566821e-01 5.963385385672790306e-01 -4.803898074910608051e-01 -1.639723404448560073e-01 -8.027633661808216692e-01 3.188605300393161923e-01 -7.035692850607008220e-01 1.280695936042749727e-01 4.903039581376266165e-01 2.403877060622590933e-01 2.063621880375883511e-01 -4.445204538084707724e-01 -9.474034860169913141e-01 7.490702562388351637e-02 1.532355230154382464e-01
-9.767893890606923479e-01 8.323156888704084100e-01 5.510940122112022443e-01 -7.808935538156267508e-01 7.434429107338794696e-01 -8.187741913890853596e-01 -4.942439099013099524e-01 6.862980190661174262e-01 4.183998930266951133e-01 -8.368062611462727673e-01 -4.204417678530613517e-02 2.326703686716082367e-02 -6.448660856211912984e-01 -2.916538218763463086e-01 -6.400923644156302217e-01 5.373985712648756685e-01 -5.389124154662606747e-01 8.354977582089929689e-01 -5.848995632144640133e-01 5.927626236968144280e-01 2.345869027254801342e-01 -6.100567553903427642e-01 7.671781068542168347e-01 -2.702605255291336550e-01 -9.491022613125739138e-01 1.815602915035723630e-01 1.261026445224414372e-01 -9.025417817775416296e-01 7.450309533156737052e-01 -8.163388677087025647e-01
-4.812181591981919970e-01 5.008473471538088528e-01 1.501923781440029915e-01 7.267342890490017249e-01 -3.948031172066791550e-01 7.069998230324773258e-01 -6.141438460769532703e-01 -7.234980243562308955e-01 1.004227709599341128e-01 -2.525833059162210237e-01 3.321612873839888819e-02 -4.703124563471020592e-01 -4.343117934513381351e-01 4.696688233944792401e-01 -8.818047281758952805e-01 4.613890965480083595e-01 -2.495764895502532998e-01 4.175639451015970560e-01 4.312606218983960904e-01 7.040722046274224821e-01 -8.609563043303396501e-01 3.735034591346577670e-01 3.132614959778872582e-02 6.675282723225047787e-01 5.553305169761136861e-01 9.089266764450565361e-01 2.485690876657920823e-01 -4.996460268355449319e-01 2.332717787254570685e-01 -2.146172620391280650e-01
-1.061926930089888699e-01 -3.775779544042194846e-01 -4.605148897269853436e-01 2.155798932071664176e-01 1.035926127645673822e-01 5.796296542429709708e-01 -6.117423820886143115e-01 5.942058716889409009e-01 4.933531968120474787e-01 -7.289170393900404887e-01 6.483018265359619114e-01 -1.131303052451430313e-01 1.989184672333668136e-01 -6.062689068496652789e-01 -8.939508331757662907e-01 -1.848031205894448414e-01 9.032452557248223934e-01 -2.856321038062247797e-01 5.618400659739605230e-01 -6.849608882357059725e-02 -9.697635101659817236e-01 -7.319074243716905404e-01 6.109368630712288528e-01 -5.763734634125423639e-01 -8.441598733687510903e-01 -4.206125713131655952e-01 8.423855227279407609e-01 2.666544931908250704e-01 9.887695836527884974e-02 2.053699240135773152e-01
-9.189133808891025712e-01 -1.164956695343921655e-01 -5.720874691925614819e-02 2.690231270664638075e-01 -9.312471995518245560e-01 -8.991585995881523630e-02 -8.842215255079233227e-01 -3.248499746130064647e-01 5.822779860828453113e-01 4.229244326921248742e-01 9.461360304490622486e-01 -1.257340398810233850e-01 8.680682246334823216e-01 -5.815608854437268604e-01 -9.004892919337830204e-01 3.720674741378517947e-01 7.561387804950578939e-01 -2.611784276887296752e-01 8.468688095035981078e-03 9.592463527670771484e-01 4.466125094866444378e-01 -1.994963949875290243e-01 5.395641598659943750e-01 3.054768429926599804e-01 -1.550088036521104495e-01 -9.441166320349285712e-01 -1.413920824920487096e-01 1.654351574743539999e-01 4.508433199961499049e-01 -8.388805687452227655e-01
-6.293132288527005791e-01 -9.495611067492999435e-01 8.615454901008121613e-01 9.554235563545674381e-01 3.677783111697547902e-01 -1.058602943325426260e-02 2.055970408096556845e-01 4.517947687855594641e-01 -7.575927880489010668e-01 9.545422128938341189e-02 -4.567891806109749542e-01 -9.232230592910393163e-01 1.906356925740024799e-01 5.844697552587789779e-01 8.256326276365890671e-01 1.871915215144077660e-01 -4.174482494174407421e-01 -2.151040683008507148e-01 2.899758183788914145e-02 8.722792335759588234e-02 -1.103629581680902749e-01 -8.178232639009230809e-02 -9.323097782109464049e-01 -4.495099086283669276e-01 -5.568328654999199490e-01 7.889484567556603878e-02 -5.994047870856167304e-01 5.466302446002802018e-01 -7.755019824286468744e-01 -2.991037856672007500e-02
7.650193054282692362e-01 -7.191308177033071125e-01 -2.192151994891067268e-01 5.742457624606573940e-01 4.464038104750105429e-01 2.804532865530888763e-01 8.736903567692904105e-01 1.667588298795104063e-01 4.211267078894933569e-01 4.480290442924934613e-01 7.385518281082532610e-01 3.413580048963991143e-01 -9.291437866024432335e-01 6.752881783047097741e-01 1.278249558153112808e-01 -2.594099963013338783e-01 -9.859726859731683390e-01 -3.172321044093262543e-01 -3.169230297227656479e-01 5.367827523240011889e-01 6.878850523657797922e-02 2.022939396714358296e-01 8.818821742804086039e-01 9.898412235832316775e-01 9.397180641394620171e-01 -6.866128793615993153e-01 -9.483341754803478185e-01 -2.229852691974347767e-01 3.334670121426563938e-02 7.044737306957387091e-01
-8.147990086479595107e-02 -7.894905388130200041e-01 2.404337805600906819e-01 5.847260249937165089e-01 6.473646455036212721e-01 1.881633014054873154e-01 4.683883565226061307e-01 -6.323107867264616822e-01 -6.398508932051949483e-01 -3.924448730465524005e-01 4.789106385898316276e-01 3.218992324676615002e-01 -9.702244483832389577e-01 -2.553761846521245271e-01 -6.713394560945855627e-01 -4.758270487635374302e-02 6.366401570302513413e-01 1.099379623586673738e-01 2.477000030377349837e-01 -7.655664009865532638e-01 4.329245617321286765e-02 6.085305365329904959e-01 6.908648827279302296e-01 -1.590929098016422572e-01 -2.741926270459962289e-01 5.593742319035679422e-01 -8.509299549997531020e-01 7.988552078607602525e-01 9.468819008863280651e-01 9.825210569982483211e-01
-4.160238009307184459e-01 -7.702494668198984762e-01 5.828569106064707128e-02 -5.157355150211375694e-01 4.889040104630737460e-01 2.169431984960608073e-01 7.866429726837345093e-01 -9.536676943286821473e-01 5.837740982360755115e-01 4.242744763594172852e-01 6.818255653339089228e-02 4.064443520071743254e-01 -6.332193596098341093e-01 9.356988275939697175e-01 -4.066745946762524433e-01 9.771667426420818092e-01 -6.983590379920012747e-01 -3.864317082485306809e-01 3.321007302404570538e-01 6.355428948853927285e-01 5.498703243611635649e-02 9.319663823093713440e-01 -4.093621347257343501e-01 -5.040502168502190017e-01 -8.188144489087458844e-01 -9.631159581165325001e-01 -9.147400102927536469e-01 -6.417198884646624357e-02 -3.750425323409141143e-01 -7.277908496451248599e-01
-8.172677689374556742e-01 3.357689589573848998e-01 -8.690483976604195249e-01 -1.898901748626022901e-01 4.255104157851961055e-01 4.992935272347964748e-01 9.018784919658551225e-02 -4.324689318473970978e-01 2.311001509821983824e-01 4.929733917383012365e-01 8.565267585779747783e-01 5.989386335655555449e-02 -6.748840430572478066e-01 -7.667103335556411103e-01 3.207700973587912507e-02 3.105717443300370917e-02 -6.007868601730970148e-01 8.229113489620878408e-01 7.056553023883564979e-01 9.024911595487505878e-01 6.156324374825783430e-02 -9.117263866089220237e-02 -9.280839562180367430e-01 4.760160303735383458e-02 -7.542756852309007165e-01 7.994122528378275749e-01 3.405026147686507354e-01 -3.916443226583843362e-01 -9.279711977121960498e-01 -6.872861661794993360e-01
1.163762571216741815e-01 5.260320239513582852e-01 1.094989997342738358e-01 -8.527065754553320165e-01 8.791461397376262310e-01 3.715499129412118129e-01 4.227568121661452460e-01 9.460903003207442319e-02 -2.904789007883569196e-01 -1.471808908086720720e-02 7.433386529678737142e-01 4.430914902436661196e-01 9.636258611919839012e-01 -5.067264202451567806e-02 6.824733984854299829e-01 4.956300460249880580e-01 3.442782143463009592e-01 4.678293122817855920e-01 -9.759906365753814317e-01 8.137325740956672382e-01 1.473116088560169068e-01 2.494633002835693891e-01 6.901909759337475636e-01 -4.006788158070839212e-01 3.314936823881159400e-01 -4.141841153719134638e-01 -6.228392108628215684e-01 5.834885118183573693e-01 9.710154192618356550e-01 -9.036071612167221323e-01
3.863326012977822549e-02 -8.516064522469644071e-01 7.002921772669698508e-02 3.279656934099616783e-01 4.406778967401489555e-01 -3.879997875146317110e-01 -5.688126277983462931e-01 6.540667760886853532e-02 7.685520121263885729e-01 -4.560691834948172318e-01 1.052078989432878448e-01 -1.974924515664271477e-02 -3.929077230772859974e-01 5.559724651727413480e-01 -3.253487290440710833e-01 -1.412603381433585048e-01 2.761163924387539104e-01 -1.884457808165822257e-01 8.614459096163629148e-01 6.186815093514913544e-01 -4.251666213630130378e-03 1.568331318056924439e-01 8.343140442038647908e-01 9.283478040991024471e-01 3.686280693629307992e-01 -7.270161256332032806e-01 6.668310078313279821e-01 7.820286640324042304e-01 -9.972594964184136046e-01 1.051281181799956638e-01
8.837351979132401780e-01 4.313282348615066208e-01 -5.031003289347751178e-02 -4.517085403259030185e-01 -4.858992640163342647e-01 1.737108497297468468e-01 6.672470769231091392e-01 -2.424424242270486474e-01 6.551538070509238532e-01 7.555512267338103660e-01 -3.014928154413535899e-01 5.703356137443858082e-03 -8.389591538094153256e-01 8.401445996813239336e-01 -8.107771333694706595e-01 -5.068871656599336362e-01 7.446490906635379048e-01 1.929534150874581411e-01 6.016785549677230449e-01 -8.478179258015551556e-02 -2.238069466960606879e-01 2.892022841103209507e-01 -7.691540059207088165e-01 -5.398086951243334930e-01 8.375519350983928746e-01 -2.742054147207862447e-01 3.935865223357312703e-01 7.984764641664785501e-01 6.515970835273637851e-01 1.779919474780582433e-01
4.150655341526294229e-01 -6.502337449134509839e-01 -3.462799685536417926e-01 -2.746626191778928638e-01 -3.235511509440361366e-01 1.748337708656814704e-01 8.995120682659357714e-01 3.894484893024000027e-01 2.663099201878866840e-01 3.581120042463279418e-01 6.732579174925590326e-02 4.358493080396426134e-01 -6.239680450561454483e-01 -8.550447009129479303e-01 -9.338030963556838426e-02 5.437101649073921017e-01 5.103702306475988992e-01 -4.346208100031900279e-01 7.051893348325566357e-01 1.258089239058970098e-03 8.631849505711598480e-01 6.061899368164374025e-01 -2.263631415789793822e-01 -1.184404000426004661e-01 8.784345763298461174e-01 1.653062895062681545e-02 1.442939727811370920e-02 -6.791419157976442689e-01 -4.209548030612192959e-01 7.341002450429500170e-01
-1.856715029986376053e-01 4.224086633647832767e-01 6.996129878047168127e-01 -2.637528155533300778e-01 -4.799334052003931261e-01 -9.413114155738280253e-01 -3.274727210743719197e-01 4.066608480577155876e-02 2.536225686795666734e-01 -3.246325878900628847e-01 -8.685041459636513306e-01 -6.714438434712836079e-01 1.741130691102990846e-01 -1.688807391540774749e-01 1.572816915211408539e-01 -7.078999072546904303e-01 -7.734367358404441450e-01 -1.313328641125349056e-02 -9.233107976824254104e-01 -5.457089993276421636e-01 6.462339870144607756e-01 -4.317691863874323355e-01 2.805666446682941184e-01 3.368760548822560819e-01 3.304263266994836301e-01 7.231334443169831205e-01 -6.902313123168566378e-01 -8.552634883574912195e-01 -8.414534559063681085e-01 5.230147886691653980e-01
7.841799176174018005e-01 9.631421993698263684e-01 -5.124525906765667882e-01 -9.777842765954269932e-01 5.040038067521264153e-01 -3.905866816656878848e-01 2.378480111951296605e-01 4.295609061774532944e-01 6.956705358507008219e-01 2.945536969991953136e-01 8.953907446195736863e-01 6.982253305536251231e-01 -8.199867019410326252e-01 2.116267485433137065e-03 -1.923927608720097382e-01 -9.205243489929925138e-01 -7.790730925008653163e-01 -3.719443791605330785e-01 3.444671929033785718e-01 -1.925803389525597709e-01 3.541522202175286654e-02 4.798208768840362404e-01 -7.097479737426922730e-01 -4.520453467894550714e-01 -1.322783961057107660e-01 -1.774920202835011951e-01 -8.591899664849312890e-01 1.556452086827170844e-01 -2.107301969368469974e-01 -7.412133871789762241e-01
-5.284582828254256182e-01 -4.110814941347085694e-01 6.172150263908082746e-01 -1.063198189298613511e-01 2.018498485722487745e-01 8.899201955681900200e-01 1.020217262274821929e-01 -9.784410178015480186e-01 4.023033552045650607e-01 1.833085051933353027e-01 -4.095267204286821006e-01 2.983418362064599316e-02 2.247971143011680550e-01 4.930480479317638776e-01 -6.021489436500193637e-01 9.639439077928395605e-01 -9.704990807507621331e-02 6.240435044692588251e-01 7.100217952478362626e-01 5.072567523711450921e-01 5.682940388117972974e-01 7.031674640104257357e-01 4.830772263831625835e-01 -7.488159473458338988e-01 -4.765582382815258811e-02 6.493495609870910679e-01 -2.060660503617362804e-01 7.289575808772558174e-02 2.901937398612032190e-02 -3.167885806727935849e-01
-7.896069703869470491e-01 -9.506140765174904139e-01 -9.584216980143092091e-01 7.629315918998641477e-01 4.560891351776608649e-01 7.780135117096700359e-01 9.166845723456974460e-01 -9.824174595839105240e-02 6.392173227055232276e-01 -2.458435639548602059e-01 9.450006177037143518e-01 -6.545160481515767126e-01 4.052553081791089862e-01 1.652568373540502789e-01 3.531320003474909819e-01 9.623414628707210872e-01 7.553934326437613533e-01 3.870877931678639028e-01 -6.306754073244947856e-01 6.974595585485360294e-01 7.528413959199068417e-01 1.775988820297549897e-02 -5.209846319077326982e-01 7.424588896706673102e-01 -7.713084924200369619e-01 6.404248080383100339e-01 8.925155512911061573e-01 -1.111558956105928725e-01 9.470045284863441992e-01 -8.189595503787588937e-01
6.628938369479935311e-01 7.602134213123417084e-01 8.202518758008052746e-01 -9.935595783848857332e-01 8.767971914022848479e-01 -5.011335316693465297e-02 3.989476358091109676e-01 1.170857286245210183e-01 8.117388676089946076e-01 -7.679140471864500661e-01 -4.665138289226200552e-01 8.892397752919851683e-01 6.779469660632222450e-01 5.625269716472544937e-03 3.043981831457814868e-01 5.994469514892963868e-01 7.847860115914527812e-01 -2.586308909358468466e-01 -9.761010304581652086e-01 9.218782829420425484e-01 8.309581888079535794e-01 7.485985124866255391e-02 -7.249524920564183184e-01 -5.932554508635782264e-01 5.697576752156505719e-01 -1.909352798259893180e-01 -4.733270276292236289e-01 -5.182506360109258026e-01 8.801955940785676225e-01 -3.131651261846224998e-01
1.987776179101706509e-01 -7.465295900607953339e-01 6.095349300909013168e-01 8.290750275014381332e-01 8.260273587118175387e-01 -6.765153216686626836e-01 -6.129822705347726108e-01 9.749083171258590141e-01 -9.048558069061376496e-01 -9.938635448965877917e-01 8.724650111853652357e-01 6.519539465223765928e-01 -6.270487972522892361e-01 2.865487441626487497e-01 -8.252610009350965781e-01 -9.585452838479310289e-01 4.009437858120853265e-02 5.817497643509327299e-01 8.206826020655090259e-01 -9.205363017281918969e-01 -7.041325363751399502e-01 -3.682067684434899846e-01 -3.014659039021936882e-01 7.270107518098045674e-01 -6.906972772237620628e-01 -8.064576124285137704e-01 8.212457166934550301e-01 -1.516887102509867358e-01 -7.800554339428167339e-01 8.110877956402141598e-01
1.566363636996813136e-01 4.051614205970321403e-01 -6.469896832770852813e-01 7.456715431977903874e-01 7.028787093366787309e-01 2.932718083795191055e-01 3.037018148395765338e-01 9.709965280124135401e-01 4.785243850626194617e-01 -5.759401113999136346e-01 -2.327731885266064171e-01 8.992720719088572734e-01 6.323774735830605120e-01 -8.904261379945807020e-01 -6.888794802431456032e-01 3.295129502936552934e-01 4.148185735640563254e-01 -7.087850471808997133e-02 5.400193136903269631e-01 -6.304608467079136913e-01 -6.420643289446602564e-01 6.199493671449968213e-01 1.879207602955580148e-01 -7.259454833258663919e-01 4.383173842931617492e-01 2.847449312960251833e-01 5.425228104237287408e-01 -2.973669584103409425e-01 -1.464966505750730785e-01 1.216892596350060279e-01
-5.330345853481954776e-01 1.316638269302716161e-03 -5.741825276815969437e-01 -1.894395373518593592e-02 1.028281914030322097e+00 -2.867413129980271869e-01 2.203270050060675278e-02 4.154263314769924831e-01 7.423743369149661264e-01 -6.156984232239627319e-01 -2.584712429972321202e-01 8.222099573126767647e-02 -8.378521946125083719e-01 -2.024086512583269382e-01 -9.585289724989342064e-01 3.290895299579718603e-01 8.577091819473328105e-01 3.781341706768030497e-01 1.324034966233625932e-01 2.374555365991781186e-01 -6.625257151636495534e-01 4.016801360675187893e-01 -6.528996676761468498e-02 9.719548113026750258e-01 1.349996586422508305e-01 -1.154913112633540982e-02 7.966485028509944222e-01 8.256844270562156973e-01 3.219200652728839152e-01 -8.993835929448881217e-01
3.094480480143413925e-01 -2.770331628090476062e-01 1.599431349819681880e-01 3.163717873892347154e-01 -8.730998833539828086e-01 5.524372298995593455e-01 9.238894467723919590e-02 -5.622192352215846928e-02 7.819532305473992917e-01 -1.419768973837974013e-01 9.722738831277822902e-01 -6.082961066840062436e-01 7.987505031680540435e-02 -9.866128529769491173e-01 -9.690317799022316603e-01 9.455284462206662299e-01 4.494259929844418022e-01 6.057715764293704064e-01 8.801157308848773786e-01 1.587396633827537207e-01 -3.097730018112530015e-01 -8.968179406674774423e-01 -9.343161715934050759e-02 9.154855625257504181e-01 5.476326023071214077e-01 9.026996342091887504e-01 6.965296378693222046e-01 7.268125896685074805e-01 2.114459716578355811e-02 -1.171168881231140352e-03
7.765719363732364044e-01 5.120761648045127901e-01 8.124011093204344114e-01 -3.356655784437306833e-01 -2.813575798921925109e-01 -3.702843711064069954e-01 5.349087428261494193e-01 2.171541625489935012e-01 6.258656053739269920e-01 -3.285135987956446652e-02 -7.600714260125498445e-01 -7.522030962690792188e-01 1.393024998222200730e-02 -9.466964955937043902e-01 -8.024698123161027041e-01 4.877065470895667332e-01 -3.320391465006360399e-01 -3.282008583091590159e-01 -2.375604605952827408e-01 -3.422737882826745043e-02 7.365015906123812961e-01 -3.483349225120775938e-01 1.707088518628545881e-01 -2.652827881951305145e-01 -3.539809659019547694e-01 -3.923220678392645433e-01 8.964361995023497620e-01 5.720489029655357882e-01 -7.973097985052169934e-01 1.739456508994506601e-01
2.350533407147758769e-01 8.475124641666001990e-01 2.155356283897491843e-01 -3.026599537522869365e-01 -4.771001166114353653e-01 2.744391117132426450e-01 6.854034150422559923e-01 -8.124387445218625992e-01 -6.365832492259214659e-01 -3.658227995384063513e-01 -8.319106875361678144e-01 -2.435833690221815839e-01 -3.936670903651258713e-01 -9.532872501803641985e-01 -2.935317577237019915e-01 5.482848966696234755e-02 -9.469748238796917850e-01 4.153965530953588892e-01 -5.168302394429443725e-01 5.801216814237184494e-01 -1.847334862058516991e-01 3.804232332800283056e-01 4.822056145309808750e-01 -2.823020900807308720e-01 -6.513877947549923109e-01 -2.909798372224904894e-01 6.738157248089828855e-01 -3.579516184125909328e-01 -8.622670176453857416e-02 -7.249778683176247851e-01
-9.224759513275153644e-01 -5.081026967945257988e-01 -9.131384523606447257e-01 -9.295379360145716863e-01 5.579584914598356704e-01 -3.716510921350758556e-01 -7.615531867779221642e-01 -5.230106244063430498e-01 8.808433883124551500e-02 -7.593564724053091242e-01 -1.397335418028969045e-01 1.903419367018432395e-01 -6.576424750013289966e-01 2.554818775895629779e-01 -5.058618620194946791e-01 -6.877871577394886193e-01 3.675227191762561740e-01 6.956561279576259915e-01 9.489416507675455525e-01 -2.780942069079229695e-01 5.794632505125454358e-01 -6.864012497678769753e-01 -3.596685011759888084e-01 6.180260614694814414e-02 3.563100087129471016e-01 9.364241947393465715e-01 -4.492950469434260907e-01 2.011528285767742175e-01 -8.183949784766468838e-01 -1.008959140093568241e+00
5.428126399101791399e-01 -3.296780788222970493e-01 -3.136949364609020741e-01 -3.956716985359224337e-01 -7.103323159987148250e-01 6.884797964493221123e-01 5.800790361658877403e-01 -5.074999324756553076e-02 -2.484446468761868088e-01 -6.013775352444933331e-01 -8.065400205036665771e-01 -8.697946575082560194e-01 -9.971166539084425073e-01 6.028207479967817584e-01 4.853312956110027443e-01 1.399949792674465843e-01 -1.977968998582678994e-01 1.049099246092447757e+00 -6.633792881416511467e-01 6.466232449085564937e-01 -1.347838006563828184e-01 -9.225517502297078121e-01 -1.186861073271302941e-01 -9.106639259824746979e-01 5.273664142669937105e-01 -7.664256183587506710e-01 -3.146530697099568508e-02 -7.266221628420390655e-01 -9.659795617338675644e-01 -4.170689699367884917e-01
2.713758719064601199e-01 2.313317372348537015e-01 3.297843837922558308e-01 -8.995210344669440916e-01 7.800703749336542758e-01 7.779642585839980917e-01 5.876017400441342353e-01 -5.522477195060562088e-02 3.628339850159773561e-01 7.808766951234403786e-01 2.264291749765082185e-01 2.350425617353571472e-01 -8.690576560040648157e-01 -1.434903206090786254e-01 -3.473056896344980382e-01 -3.594088412147589673e-01 -2.518576078980815369e-01 -7.654835184314734420e-01 5.024601856174008008e-01 6.126641087439441691e-01 5.307098405354178094e-01 4.803572107051026774e-01 3.701380588749402234e-01 -5.182875741539777481e-01 4.066490360526524572e-01 6.018717514114122480e-01 2.776167533779364538e-01 -6.073156396011920588e-01 4.123505606532160139e-01 -6.470279906427323091e-01
9.346202261288423241e-01 -6.240782571731352535e-01 4.920854337792536781e-01 -3.436070843851684042e-01 -9.104197551846280323e-01 6.937959903420696239e-01 6.851825095552257494e-01 8.757359778684091489e-02 -3.938677732958299482e-01 -2.472326359707099075e-01 -7.206057450242854268e-01 6.498534048608602953e-01 -7.356749758494345315e-01 -2.602482813596381228e-01 -5.414110631926815076e-01 5.114233084348165370e-01 6.347889055764310839e-01 1.025111023756980266e+00 -7.797853455282629520e-01 2.727259625105319385e-01 -1.512792306681882415e-01 8.599674208713789514e-02 -6.559942547908187427e-02 6.788149642019299934e-01 7.049600354296012839e-01 -4.269081807078090596e-01 -1.950742642376271097e-01 6.430292240729233999e-01 -3.887022897815679140e-02 -2.871745232805179571e-01
-5.637368093980483774e-01 -3.107683182268749511e-01 8.412082063307720903e-01 1.258158811908232644e-01 8.759533069677976069e-01 -8.641105846795694989e-02 4.176381354244303873e-02 6.312283292385247879e-01 9.885565148447141848e-01 -6.656286140305252008e-01 1.489081381418666354e-02 8.425741431636775136e-01 9.072905472272534411e-01 -3.022910978499617207e-01 7.863153944419828401e-01 -7.759789879850040872e-01 8.257714772426066885e-01 -4.693596213329178091e-01 5.490329152987519779e-01 5.727551742568478405e-02 1.771387234231145691e-01 -7.572602722383238172e-01 -2.495598466254869419e-01 1.339664683206552021e-01 4.958939343346866480e-01 2.221500276437423094e-01 -1.872410969118891155e-01 -8.651337505557917806e-01 2.985957378609302992e-01 -5.080871400684404682e-01
8.065951942833887722e-01 -9.536300440120731858e-01 -9.772022188879214699e-01 -2.755252878133900851e-01 3.751766574865060266e-01 -3.745442501134247249e-03 3.229288276219779430e-01 -3.402151198862776171e-01 8.507740979299038830e-01 -3.977235057403563090e-01 8.136043197424544515e-02 -8.059267578774859109e-01 2.625554109058081398e-01 6.842076828843287606e-01 -1.713828665329502066e-01 -6.291874594305194579e-01 -4.437814629281756629e-01 8.662278163882888293e-01 4.014624614678906633e-01 -7.973736510199622707e-01 2.481843857952853796e-03 7.260328988590328270e-02 2.527199817270029958e-01 4.001612552563071912e-01 9.872290307222364447e-01 -9.080475618702048279e-02 7.189519265603917519e-01 1.001327190107257625e-01 8.661558426256669163e-01 -4.624218957163839794e-01
2.408539225804896822e-01 2.660365453622666188e-01 8.002051069796589644e-01 2.284951251046981810e-02 7.808963828934586404e-01 6.116671870833146896e-01 6.388637654535599397e-01 -4.493994237697037653e-01 5.243304298731989166e-02 9.949301313213426701e-01 -2.904952675779619575e-01 2.093740319553460683e-01 -9.397150313176082514e-01 -9.177498359762426006e-01 -9.513807298642666943e-01 -6.946847651784173738e-01 -3.605200062370914060e-01 -6.611984061637448118e-01 -1.219571368839253434e-01 2.618882543315311229e-01 -7.502715364966747735e-01 6.837818956180543584e-01 -2.828487299059869176e-01 4.204378139147513793e-01 -6.426051297575160470e-01 5.457337835960925920e-01 4.848269236359041834e-01 -5.624843673951023248e-01 1.193601411409744156e-01 -8.356998355793188171e-01
-6.761587929418714227e-01 -1.586292598577395130e-01 4.695746987475449274e-01 -8.917868787765285132e-01 -4.862395798893526244e-01 -5.942342993731624112e-01 2.996854040804595165e-01 6.196590533034483927e-01 -4.983920180705148084e-01 -4.029533541381938311e-01 2.667557606689668903e-01 7.200675569787767794e-02 1.744335291348062811e-01 8.925224832587473900e-01 -3.336292226173325215e-01 -6.348550063588217496e-01 -4.984953332976099771e-01 -1.180629448354152643e-02 7.793422311354447629e-01 5.089614855886831490e-01 -1.652735914167950959e-01 2.951430359560149319e-01 8.127741736462119615e-01 -2.972958525559928344e-01 6.178971534948911604e-01 -9.580613624343091717e-01 -4.351477997781832419e-01 -5.720469247709445426e-01 5.561658105946187813e-01 -8.438062912304656882e-01
-4.176467797241472657e-01 -6.917566153648934124e-01 6.557957645431223836e-01 2.740010428782939655e-01 -2.987008048578840835e-01 5.122615208888632310e-01 -5.099495019531889994e-01 -1.073488784442002686e-01 9.283517914147469685e-02 5.747332191831114323e-02 -9.243228089077825116e-01 6.998697031955850578e-01 2.876505382908298714e-01 1.754858957667436714e-01 2.795126728615438538e-01 6.630328262373529347e-01 -9.274803239721600701e-01 -4.484873849916157784e-01 -1.148923310356086969e-01 -8.335525809443382617e-01 2.236936792180776734e-01 -2.781103891772744863e-01 5.940073401346994686e-01 4.084084925161992619e-01 -7.529438290771790776e-02 -6.349036811992394558e-01 9.578391219348693086e-01 -4.259106992389167790e-01 7.909031759230712444e-01 6.987692401912586337e-01
4.404237775790071918e-01 -7.536376917161171640e-01 6.374546665594589268e-01 1.902320549210503309e-01 8.116601506872167526e-01 7.737186753234928105e-01 -6.010589989462458149e-01 8.131121429465930639e-01 -8.111968792475590107e-01 3.097288154385964276e-01 6.535360727195338448e-02 -2.259368777215220447e-01 -7.860600236808898966e-01 7.687833957905303439e-01 -8.245945030997929859e-01 3.071488058202256344e-01 5.326808336306640967e-01 6.484392445118087878e-01 9.442565547926844438e-01 9.834586539831708940e-01 -5.693067019122646233e-01 9.688117566881395692e-01 -5.087323333105253642e-01 4.254625024350806584e-01 -5.871478171482384933e-01 8.873023217106692506e-01 4.742480134526869673e-01 5.712721366558943803e-01 4.812633502946099817e-01 -6.015996960792420190e-01
8.927267185364808899e-01 6.624797798999759735e-01 3.933689633527546192e-01 -8.458141917209158755e-01 -4.657226680811397124e-01 -8.262085316348688480e-02 3.185841483445543965e-01 -6.717562566669041946e-01 4.922811406897933395e-01 8.968648951267659264e-01 4.182664339946129406e-01 4.467955539674057786e-01 -1.688750855872143131e-01 -6.531407721853454973e-01 4.618502284892498366e-01 3.708798836311770764e-01 -6.220193442971977404e-03 5.120712552688053698e-01 -6.645949653819271941e-01 4.397726172599609740e-01 7.012077579317639309e-01 3.807289993375886361e-01 8.586193392027094973e-01 3.156821639591018691e-01 -7.362090981216629082e-02 8.939894006045556729e-02 5.855713381689442443e-01 -9.586842843105047862e-02 -3.126846702378813792e-01 -4.934899054362786863e-01
-9.434812023877860998e-01 -7.088361946237786704e-02 -5.884452155693487008e-02 1.440884283657590803e-01 -8.707970368745219236e-01 6.088792367554303198e-01 9.064334165753178407e-01 -7.902254573595401954e-01 5.456636585141056983e-01 -8.073494198040982450e-01 -1.896569574606550290e-01 -9.417283139856100771e-01 -5.395193166804512774e-01 7.113001711491651058e-01 -8.007081603719372609e-01 -5.352087455379810343e-01 9.633874525495611518e-01 4.175199661310105004e-01 2.039790281668256711e-01 6.165110761517003102e-01 9.468718740287893620e-01 -1.047064803143864520e-01 6.213926354582814948e-01 5.272123773522756629e-01 -3.397982210086165633e-01 7.748759077934137540e-01 6.438123975256961895e-01 -3.506071053138659632e-01 1.722285115189177152e-01 -7.577772494078052201e-01
2.022940733408695735e-02 3.740150730418076996e-01 -2.461156760259795018e-01 -6.757529735080123334e-01 -4.382381401541302068e-01 6.570536320574626998e-01 -1.282698304792575517e-01 4.536902808729337266e-01 -4.471308650255332307e-01 -5.793991374065814437e-01 8.905761859822816096e-01 7.708065024686134858e-01 -5.895554074297124636e-01 5.144910700212432797e-01 4.795753545125862605e-01 4.435328020577891106e-01 7.125143549490526862e-01 -7.095533426795794796e-01 6.390007704853617465e-01 3.893380331407969575e-01 5.908791497612415622e-01 -1.029481849569151564e-01 -7.005178447331261715e-02 1.211506377973867732e-01 -2.692315320813996049e-01 -6.807403331835346627e-01 1.694587785957912818e-01 -5.881803180782900764e-01 -9.210331427589479869e-01 -8.251547552013616116e-01
8.063155121042527851e-01 -1.530088786548496060e-01 3.213976344686510500e-01 -6.959355284570297728e-01 5.399851439937486397e-01 6.545391662161829105e-01 -5.182632583843096441e-01 -1.102228238039292402e-01 5.866173452274974220e-01 -3.817063284657770117e-01 -8.039527499309213621e-01 5.080783572388469782e-01 5.218542938390144936e-01 6.369219885288066596e-01 8.886964071249235930e-01 -4.575778659153373895e-01 -2.647441692567401028e-01 9.519769640868640526e-01 4.532012413646306914e-01 9.838511385259474107e-01 -4.542870958346250654e-01 6.748530734458474400e-01 -6.956680455311906597e-01 3.591678598205673145e-01 5.400201794619584605e-01 -1.457309056362389443e-01 -3.118872327428969249e-01 3.992650154101823334e-01 -2.532562368965659005e-01 6.089259667964049827e-01
2.312104192421124138e-01 -8.414200006506716845e-02 4.084047426366443911e-01 6.999089160247223829e-01 -2.953494293823349937e-01 -7.487470004863351625e-02 9.136144501879184254e-01 7.231160710862194474e-01 -1.287716329457969933e-01 -8.484451786513441673e-01 -5.622934852535445005e-01 6.316464104464414309e-01 5.904865371294963916e-01 -2.689639259130467419e-01 -5.783578698982517752e-01 3.458709802281235146e-01 -8.294529725717305624e-01 -1.598528707483812816e-01 -4.395846924348971174e-01 7.633226125269619855e-01 -3.088227780849683857e-01 -6.228076578987599143e-01 -1.930782500516127764e-01 -1.740744190612521503e-01 3.531861719386460985e-01 -2.658999913524698333e-01 6.788692232916234692e-01 -8.777901865779889068e-01 -1.089855967585653951e-02 4.637253487813278174e-01
3.529546555425505105e-01 8.393415723911681336e-01 3.335578243722264191e-01 5.905857612786779010e-01 4.984003410945597734e-01 2.650505239614269204e-01 -8.305036046784376458e-01 -5.158666185502740475e-01 -9.782234400515337214e-01 9.456019179380291684e-01 6.819909674957935763e-01 3.900002090393703824e-01 9.445274408585302428e-01 4.858587439988723000e-01 -9.916581542237291602e-01 -8.637728042917725002e-01 -1.461417351591917935e-01 7.415995031019557704e-01 -5.004583140614322634e-01 -8.779143619632203688e-01 -7.166208387469278351e-01 9.521572045886312896e-01 -4.573175187509604944e-01 -3.757616634913374387e-01 4.420001210309993933e-01 2.316558430971001892e-01 9.849740900740351357e-01 9.001535111334394434e-01 -4.035202881946413078e-01 5.304699741298612992e-01
-7.118360036698494209e-02 -4.165734157851453956e-01 1.293857565212533645e-01 -2.840966420299217421e-01 -4.012408777003256821e-01 2.714954184803923254e-01 -2.731268907045205641e-01 9.784962400704030339e-01 -4.105610673540283639e-01 1.831571933805856978e-01 2.815631226467742443e-01 7.791610328613731706e-01 -7.219703545770260744e-01 1.708967271683598244e-01 -8.156210417991767159e-01 3.447441510003320664e-01 4.708687569872650469e-01 -4.806616561748090488e-01 -1.978980810586110917e-01 7.365867193347672703e-01 -7.736602686484643776e-01 2.734017260598106125e-01 -2.121268577551376766e-01 4.267719499983984588e-01 -1.539818068922002847e-01 -6.139982543187283426e-01 9.063532129328353282e-01 6.501696636711595811e-01 -7.041785352442809787e-01 2.329930054654021782e-02
5.977540942392592926e-01 -4.375793389468843886e-01 -3.144380139275396724e-01 -1.737822817092911365e-01 1.794441955506284256e-02 -6.883248483601399625e-01 7.710922724290720787e-01 -7.866335884815695012e-01 1.439691693451331800e-01 4.058063799332976562e-01 -5.875397578698874357e-01 8.167514466158315445e-01 6.453813354326685126e-01 -9.847058644649152592e-01 -8.187634081041519352e-01 -9.538347327872731540e-01 -4.861282275245522588e-01 -9.939868686058440650e-01 -6.017435206368650924e-01 -4.913562725915334162e-01 2.351796607544594520e-01 -2.330732312225330949e-01 -2.990011269744720090e-01 -8.382248800828530078e-01 9.549772352863263036e-02 -5.809216425746601686e-01 3.408327639549078580e-01 1.351544704467211033e-01 7.073476694380233243e-02 -3.029886060787936874e-01
-1.725067901729688269e-01 -9.043264119547369528e-01 8.038999395885788601e-01 -4.943936519449737554e-01 -6.659817086710945189e-01 -4.407153588880327044e-01 7.568291211708905175e-01 -1.369452952122359596e-02 -8.856432388498964858e-01 -5.077972496080339626e-01 -1.178089914181683073e-01 3.634102725809166268e-01 -5.934504976045404945e-01 -1.670982276708628603e-02 3.661625875554420650e-01 -6.604944153803262719e-01 -6.466678592229616607e-01 -6.439889122094444307e-01 1.141641141748764576e-01 -2.122925833554070441e-01 -2.358552707782084201e-01 7.360569911219975170e-01 3.511590221102765808e-02 7.287667459306046425e-01 6.217714080974239277e-01 8.760000621719157277e-01 -6.022777171374273930e-01 8.794221431878991302e-01 6.982124413766025439e-01 -8.316471809769021561e-01
-4.492924777526838276e-01 -9.057853098344974541e-01 -7.885735839861180985e-01 5.520695523285351625e-01 9.088356799124844843e-01 -6.594589325117524714e-01 -7.833110360618783519e-01 -1.819859175457489708e-01 -9.320109170157073741e-01 2.479414329253451857e-02 3.463800637333893651e-01 5.997512072298568642e-01 -7.995257611474887449e-01 3.644679939797205726e-01 9.727419115189591681e-01 -9.645260920433530449e-01 5.456733828741178183e-01 -5.703331176442255623e-01 1.610643684123050090e-01 9.463406324014320692e-01 -1.781180551353030439e-01 9.477018959493836991e-01 3.573111567458008841e-01 2.286152797078424004e-01 9.456861546806998309e-01 5.687158082743417609e-01 -4.155939965245114553e-01 -1.127922380035722844e-01 7.672868386620218528e-01 -1.025838457553302163e+00
6.414751596443442061e-01 9.911372424702687978e-01 5.216656707050180142e-01 7.772970904499958422e-01 9.482757106656285462e-01 4.556086624846851230e-01 4.859500471289618373e-01 1.822265285813144120e-01 -1.120042102565530634e-01 3.422638667096838394e-01 -6.345252769902743895e-01 -8.570325194109451594e-01 5.954738569261198711e-01 2.968638391604525584e-01 -3.593212373665012893e-01 4.736373783498877277e-01 -1.661521351218351594e-01 4.672632318459986611e-01 4.554998507678793829e-02 8.675842807469142937e-01 -8.894690034213411645e-01 -6.094709460325492545e-01 7.891423605108893735e-01 -8.869397317169572803e-01 -6.180746942959409740e-01 1.035876761289191483e+00 -6.381377841690817343e-01 -5.926741219497880797e-01 5.748754111225744534e-01 5.603498256734379401e-01
-7.844112142622998718e-01 -3.845675985620312098e-01 -9.020912206828824997e-01 -8.015703787417468584e-01 1.001504135718051636e+00 9.007311581119141763e-01 -8.755450281314891559e-01 5.226302761632242166e-01 -8.081456239689652765e-01 -6.097172256286509384e-01 -3.433900821555920801e-01 -8.193528698211572162e-03 8.299358625468938877e-01 -4.448161699536009039e-01 -2.592379618807424957e-01 9.499037947301919305e-01 3.660110045235515641e-01 -8.602426554511328760e-01 -1.290567615414531244e-01 -6.563481491019389213e-02 2.422189029434386465e-01 5.548848062668241266e-01 -7.214163657978593935e-01 4.817550254969086843e-01 2.212586593536105817e-01 4.350300600977946019e-01 4.005802830113116553e-01 -2.638551502504448698e-01 9.413270841889422869e-01 -5.049615601971355616e-01
8.580782883606674627e-01 -2.879982802076109724e-02 1.395203260831057446e-01 4.864917162632756420e-01 7.371263196513840876e-01 9.378407194612152775e-01 6.584459697853105586e-01 6.180035276759342500e-01 -6.873618794092055673e-01 -5.362557718078168889e-02 -3.051852586125862743e-01 -3.294097040211637628e-01 -5.038961526662947277e-01 4.604831467419295277e-01 -1.012858410898449746e+00 1.954230176973415223e-01 2.523152066636983326e-01 -7.305782445936861436e-01 -6.756594906553554658e-01 2.832499900380701652e-01 -1.899606077898505496e-01 -1.704459322781785857e-01 8.084754479046466491e-01 -1.988456431947001057e-01 2.596610250896049799e-01 -8.212959810942352390e-02 -2.444717924735154702e-01 -2.614897552264222602e-01 -7.895150075137361556e-01 5.703138800064644354e-01
-4.310488878099098531e-01 -4.545049456868203164e-01 3.105412190481588453e-01 5.718640490420321409e-01 8.275045078063625326e-01 -6.227897278556553395e-01 2.394013319291161401e-01 7.836829429359852828e-01 -2.483146602891741495e-01 -3.957966529228573171e-01 -5.547117454053910324e-01 -6.323524151850626884e-01 -1.007806024182536231e-01 2.186506778212102264e-01 7.623873666439126562e-02 2.404217561991189023e-01 -8.893604489180091388e-01 3.165853549978591697e-01 7.210584775020001391e-01 -7.202953627292312255e-01 8.613915294088210495e-02 1.768635287809487422e-01 2.828501270683815849e-01 2.280732871045626151e-02 -6.893583677369460316e-01 1.791677713151082832e-02 -5.871778824045241763e-01 -9.726279562363497888e-01 -1.800414482800512528e-01 -2.044070754043688098e-01
-3.531772134362198279e-01 7.996484228045430687e-01 1.679700451120537119e-01 8.236771813659942154e-01 -1.505411289370768846e-01 -5.137138666339474691e-01 1.030653196045544284e+00 -8.880413856225628788e-02 5.151738162907146812e-01 -5.596042320247669039e-02 9.180775420975635370e-01 -6.422051186327983885e-01 8.072089431716721331e-01 7.671535761110587215e-01 6.201351181601197915e-01 -2.954067414880744979e-01 -7.688236057355509745e-01 -1.677242292151665259e-01 6.549543461596254446e-01 -7.041621131786553189e-02 -2.790060709255573479e-01 -5.770761435993216892e-01 -8.532052737356965455e-02 5.169272368045482180e-01 -4.969355502450160111e-01 9.152158339563145617e-01 -4.740228662418615735e-01 4.677975756885767167e-01 -1.459006617139095574e-01 7.339647273538000283e-01
1.037291726544709719e-01 -6.481045413279684642e-01 -3.345568852200468957e-01 -7.479082906284963972e-01 -8.408448162645189017e-01 -6.748743888136989888e-01 2.435089595716611044e-01 4.826806397228274315e-01 -9.969948193645706835e-01 8.458866317765001419e-02 7.121559626840218149e-01 5.013067674076774338e-01 -6.820077160264197413e-01 -8.314867338374445915e-02 3.263701282874629239e-01 8.001439119955197077e-01 4.554698482433887641e-01 2.438555929328201644e-01 1.202563304322144949e-01 -8.737057640681383797e-01 -1.091782438932096533e-01 -8.587581617012367552e-01 1.289599811340456093e-01 6.387433564527041918e-01 5.218152587197136816e-01 1.192994694255347987e+00 -8.294936001372061884e-01 -3.571047664893854945e-01 3.719528102064669373e-03 8.582611445913871373e-01
-6.709451938705182084e-01 5.184226642504253801e-01 4.031366760514359937e-01 5.132297778518682962e-01 6.509462126412765004e-01 1.986453313660088149e-01 2.070124711068276890e-01 6.278031564872583736e-01 -8.099696969776059019e-01 5.197524056033859807e-01 4.330559238397875821e-01 4.778313556004641915e-01 1.006554631806036770e+00 3.137160437497060750e-01 -7.673016258633795772e-01 -3.943626291124174843e-01 -1.448329946730114726e-01 1.798447763938647304e-02 -2.713066111627399080e-01 1.006350476299105040e-01 2.033762926036586025e-02 -1.127598027035246891e-01 1.017918596177988633e+00 -7.069568085338948649e-01 -3.620577703249534540e-01 1.791821740393297613e-01 -2.117171644421224075e-01 -1.052049205300192636e+00 -8.333256562522735056e-01 -8.583026628611490905e-01
-3.815986886056145222e-01 6.897852987059783780e-01 6.945205272407861674e-01 -1.023818883508681221e+00 1.142698535305501292e-02 -1.016538978348389577e+00 -3.932176504092034508e-02 -5.072803870806564808e-01 -2.263586585822417452e-01 -4.500605034899518575e-01 1.263660671833247706e+00 -6.927216984283429690e-01 2.919050405818812699e-01 -4.510772595527507561e-02 -9.337231931349621039e-01 4.023957212448396326e-01 5.350719302800222010e-01 -4.277620012481381795e-01 6.269218968201775155e-01 3.306079099831706891e-01 -8.975486934655042548e-01 -1.593505900255279828e-01 -8.134551113300680925e-01 -8.554138791287772825e-02 -8.529230813723904792e-01 -3.258861225542951101e-01 2.789119089692491671e-01 -1.358487354175510475e+00 -2.201202313697034341e-01 9.621084377250300745e-01
-7.820948296458921645e-01 4.646526378900865950e-01 7.580107219828617904e-01 7.055781268336427381e-01 6.096237008888228948e-01 1.594164238289202395e-01 -5.733227049431723898e-01 -9.304692781220853803e-02 -9.069634448031087537e-01 -8.189867632224135940e-01 1.184008472124026268e+00 -1.954183425671265073e-01 -2.600404647552960746e-01 -6.331165866011809751e-01 -3.647113616601097563e-01 9.195287405736439768e-01 -8.830333417634407267e-01 2.605194761424199923e-01 -7.084207807078078956e-01 5.529586630803612346e-01 -3.187939910342779126e-01 -3.221564706509350007e-01 -6.275349312343270203e-01 -5.926913509528095592e-01 1.089627520455297427e+00 -1.765972788461327436e-01 1.000347754840390069e+00 4.472007601412982258e-01 9.559081786414341808e-01 7.373938958344994354e-01
-7.679488001939200892e-01 -8.245659150862767461e-01 -1.377212393098350800e-02 6.023580211094081704e-01 8.424625541164158793e-02 -3.136520125925837399e-01 1.115445476342786568e+00 1.153561245885840469e-01 -3.586767046974826956e-01 1.818118665665488243e-01 -4.864462038227388985e-01 -1.033953335762006542e+00 7.136182084316392560e-01 -6.094942734611752400e-01 -1.329455818624784014e-01 -4.080580331738841160e-01 4.255563673162456317e-01 -4.013292673725137732e-02 4.137632563605328495e-01 3.032482683786049127e-01 8.886321688894471826e-01 -4.400883794974455587e-01 6.228792003582838549e-02 5.198781258232487712e-01 2.262982408166137605e-01 3.253584228584832649e-01 -2.478481700219408446e-01 1.290773691784571076e-01 -2.426806053464968527e-01 -9.235115115261003371e-01
6.448238146940685755e-01 1.014041955049218569e+00 -7.727386986345807784e-01 -6.854599071235391028e-01 -3.167890309057310727e-01 3.350170110787082378e-01 8.076160605179032170e-02 9.853214962023068013e-01 2.672912383583321907e-02 -9.818648390093972500e-01 1.228152539865045023e+00 8.092978056219009286e-02 -2.382864770279846389e-01 -4.310253020969046500e-01 -9.186009449814385164e-01 -8.282384333268656418e-01 -7.621435153324792600e-01 5.385467461690851554e-01 5.892778333872541463e-01 6.373483601416720656e-01 7.084696406440451621e-01 4.525904997795556217e-01 1.184655557653220281e-01 3.108081220835351433e-01 -7.629647507052219613e-01 2.913716965513655777e-01 9.217534967941013457e-01 -3.640188063256499795e-01 -8.699160775979507543e-01 7.003386958717737476e-02
-3.224514430331393289e-01 -2.257983624666276279e-01 1.102174419911155778e-01 8.238321775389971791e-01 -2.443495559191823929e-01 -6.394739421748132369e-01 8.109828491742105960e-01 -5.903793654740804170e-02 8.091907336823344066e-01 -3.439892294481132207e-01 -4.305736411132945474e-01 5.197193660765309087e-01 7.757772197134171765e-01 2.345486388998145599e-01 -4.938827412250660909e-01 8.209065776030851636e-01 5.845927601216395209e-01 4.020541939521276587e-01 -2.282765763005389359e-01 2.544525780501447065e-01 9.645189945400362008e-02 -6.112840666740597673e-01 -2.884642043560455282e-01 -3.887268620182159351e-01 -7.650608728777347212e-01 1.057875172095595451e+00 8.874465434742759840e-01 -8.718904956372183213e-01 -4.660035726373398246e-01 8.080167190072959915e-01
6.210981253231932092e-02 -2.190089796622634033e-01 -2.120808057971389771e-01 2.910482013434270154e-01 -8.805719844565961241e-01 -1.023727709946776088e+00 3.727719653357800533e-01 7.353380846878950772e-01 3.095966360155333885e-01 -9.585536800568515980e-01 7.067081143323439285e-01 -5.876856343166576568e-01 -1.062903235304522576e-01 7.374510656488600935e-01 9.653752207460897239e-01 9.221337434311888126e-01 6.820110741457664494e-01 1.259523286591106017e-01 3.415094764883825906e-01 6.253019796885201931e-01 -2.424423300527825675e-01 5.990163706363744733e-01 1.577552360636352013e-01 4.334980763875126986e-01 3.882106310621029066e-01 4.850377997123815621e-02 -7.884800063898209088e-02 5.504868195009726684e-01 5.237191659320692416e-01 7.006810176137450163e-01
7.050995408585912783e-01 -7.410835591187259208e-01 4.443450345196078288e-01 -4.379087559933385054e-01 -3.933645502987173637e-01 -4.023241021721782884e-01 -8.263571058166055971e-01 -2.586443313498947294e-01 -2.028898815865046446e-01 6.360180627058799330e-02 -7.959892070463321645e-02 5.678829917388992232e-01 5.748340835787189018e-01 -7.198072414401640584e-01 7.689527958649320372e-01 -8.961679327947484897e-01 7.973429866487989903e-01 9.295930696681045102e-01 5.764571028979354611e-02 -3.040311245212397595e-01 -4.617013799650229178e-01 9.280429008673493074e-01 -4.696709020580507321e-01 5.841861080035063436e-01 2.436235695338392071e-01 2.153361833015908500e-01 -3.983996043081734495e-01 3.663155204584836455e-01 -3.025895587879801063e-01 -6.488985648245013671e-01
6.973590294119676181e-02 1.268408870187184290e-01 -5.793040317383765236e-01 -5.316877084062898717e-02 -4.913370313910208481e-02 2.712333615365173367e-01 -7.931858090363532732e-01 -5.347602599382740296e-01 -5.574446074053017730e-01 -7.143511810748038870e-01 9.900033666288631240e-01 5.652888180583175437e-01 4.083576271591769502e-01 5.696624919601319670e-01 1.915109840037209146e-02 -2.372935779588078720e-01 -2.426599709490953050e-01 -8.906897746247985914e-01 -4.091868995661254726e-01 -4.241017347750338229e-01 -2.182499911751500654e-01 -5.925937473115401311e-01 3.429729309121625769e-01 8.566868437643399004e-01 -2.946088912688812206e-02 3.996756176497604507e-01 6.891596292980937122e-01 -1.683614363620871412e-01 3.004679308945949479e-01 -4.293455782539172816e-01
8.492864374383174431e-01 -3.246195869996528760e-01 -7.982875770894308776e-01 2.678126305346133496e-01 1.653129138835469636e-01 -9.890505582038016108e-01 -6.815100985887870833e-01 7.907397618017059093e-01 4.145109344994597489e-01 2.322926918876203339e-01 -8.980188034868702429e-01 9.831448844080767913e-01 -2.493678523345007891e-01 -4.468956798076119119e-01 -9.651487295999905403e-01 9.046457314877762723e-01 1.506934952282687756e-01 3.315335003845498729e-01 -6.149069700847813458e-01 3.981567309147485689e-01 7.567463015555897510e-01 -6.680778298367204826e-01 -7.492803548862073670e-01 -5.261128850427067016e-01 3.569358840935499266e-01 4.301840515405623289e-01 -5.250784708326788897e-01 7.149029456401642113e-01 -5.625925044867972069e-01 3.162644210126348554e-01
-3.523443526425525385e-01 -6.699288738525777109e-01 -9.300235648513325293e-01 4.295604885997217903e-01 4.566158460695300958e-01 5.657521167205130652e-01 3.457635482715576414e-01 -2.264318772397937163e-01 -8.488174076532363221e-01 3.213553961476787735e-01 1.158010879370938023e-01 -4.952656350846348920e-01 -5.820006361666356653e-01 -2.657551192278919672e-01 -8.577932666400589490e-01 -5.826678847628034008e-01 -7.577579648794594558e-01 2.266641510078630517e-01 1.876620655093011181e-01 -4.140435669475931446e-01 -6.061627155746140971e-01 5.580185677180388160e-01 -4.893748346109358938e-01 1.741096734338766217e-01 -1.478875580372292775e-01 6.600781794110992529e-01 3.456982202510427982e-01 -2.990543699942469491e-01 -2.094803989475553518e-01 8.498671153470405137e-01
8.747051173902085086e-01 -9.890860099741852762e-01 -7.256415475788881020e-01 -3.741031988361059879e-01 9.398132101505769498e-01 7.373770212198423879e-01 -6.012794639957109721e-01 1.912119707792105383e-01 4.502137399514655747e-01 1.234769980288235591e-01 8.711215428503247260e-01 -8.260866684566193774e-01 -7.180640222124349270e-01 7.741332217557009843e-01 1.953249843411143660e-01 -3.870480573536740354e-01 5.955305950097149470e-01 -1.364790364176547421e-01 -6.636163243025544611e-02 3.304550733018225134e-02 -4.040159782171121039e-02 -6.839617944901157376e-01 -5.272766959840907014e-02 2.121590391923168784e-01 -1.065849488341333029e-01 6.099769873074225579e-01 -1.668520507532806341e-01 -3.500526321119877271e-01 -7.731643291084734290e-03 7.698054124403247434e-01
5.356157347395076318e-01 1.639931480907221850e-01 4.714259271299536813e-01 8.943873384825311579e-01 -1.895999918476061197e-01 9.994140357163894262e-01 -2.708886242915025111e-01 1.531093312784421734e-01 -2.449266814965129768e-01 7.855010915168576524e-01 -5.340718067810443781e-01 -9.804475406121391234e-01 6.939656726621317162e-01 -1.701470833310452235e-01 -5.076572643063375079e-01 -3.866597699887173167e-01 -2.342303835574792714e-01 -6.326381035421908550e-01 8.623580975096647450e-01 -5.392799189523196368e-01 6.213846038030137464e-01 -3.315704425133885191e-01 -1.701771214862723980e-02 9.068532019550363810e-01 5.349065437101898635e-01 6.906273569526859557e-01 7.100645260449394147e-01 8.108161129454649618e-01 8.319814038182002935e-01 4.454531775475223387e-01
-3.818284474563766739e-01 4.324787651495243246e-01 -7.109328215095100933e-01 3.885452717212063423e-01 6.825469540861113238e-01 -1.082066837397446246e-01 -5.103801111690158265e-01 -3.082509210329418270e-01 6.631311552007792542e-01 4.012537313380915016e-01 2.318924128390384976e-01 5.360225485934850820e-01 -8.363807786501868957e-01 -7.165959177875746988e-01 -6.600730065821656112e-01 9.356173692996616609e-01 1.961067941651470914e-01 -6.253317432554292843e-01 -5.032819482242525400e-01 2.120507188409703758e-01 -2.108353524182795535e-01 -5.419529807980296710e-01 9.514076002037861191e-01 -3.852575641114595051e-01 -8.883803869598017044e-02 -3.080497477515189431e-01 -6.743066758909512792e-01 -5.536805058344553832e-01 4.179422516493314088e-01 8.165893526016196891e-01
-3.847964458653720388e-01 8.059216264982834721e-01 2.940527000978045979e-01 9.131588259908316463e-01 9.520571113012925649e-03 1.278891709881711525e-01 4.147572584580445643e-01 6.583573674659062291e-01 -6.914531511081386528e-01 -6.468968716107512673e-01 -3.497492640377152240e-01 2.669816703680301662e-01 1.076239513230578537e-01 -4.864978945001497412e-01 -3.185890338319155024e-01 -4.173159143044253838e-01 -7.500620112047463595e-01 -2.462586247588108845e-01 7.028095896524909625e-01 2.279989291452839406e-01 -2.199674046718536613e-01 -4.964715447175200858e-01 -9.298848797247724063e-01 1.437397795054784211e-01 -5.612864980512939361e-01 -2.739456206472258293e-01 4.702035689463361368e-01 -2.504792581133295504e-01 4.986303362704785913e-01 -7.569642749593573638e-01
3.301852928365991979e-01 2.388744592785717324e-01 -6.525075577171275398e-01 -5.948504587387725140e-01 6.622496618594282403e-01 -2.189108407968925196e-01 -5.245902605058317958e-01 1.861107507592358323e-01 4.999294594486639043e-01 7.354712508248288927e-01 -7.166074098809391835e-01 -1.694700371996915311e-01 -1.860442885210172592e-01 5.419431238678096285e-01 3.299796498140705747e-02 5.158547106544933980e-01 -7.244055710501092760e-01 -3.334516176859508851e-01 6.093349602423201450e-01 6.233438195889238198e-01 -1.655010190798078540e-01 9.878757604849683904e-01 6.386725931341585838e-01 -1.634719649321055290e-01 5.551336913588995614e-01 6.396362402793003277e-01 -4.487431456258350049e-01 6.919822749133893725e-01 3.884915626531041388e-01 -8.841206136024175599e-01
6.065178861110331887e-01 4.495107509286304648e-01 4.765046567901888852e-01 3.155221988139058076e-01 -4.060112670601119800e-01 -1.457022136156116421e-01 4.948603366638598677e-01 3.847908324786276091e-01 -5.755497213758764552e-01 -6.272908424116730997e-01 7.996134274950128518e-01 -9.147229640848002497e-01 9.513920892971035048e-01 -8.087744855656635590e-01 8.268253412147481551e-01 -8.238614416277946217e-01 9.015181481172660494e-01 -4.965977614618747316e-01 2.908183573877107242e-01 -9.193071424196889163e-01 3.292633232621040573e-01 -3.192034072584924720e-02 -5.160031359292289732e-01 -2.759274200574491909e-01 -5.561852555898718631e-01 -9.827430556075754664e-01 2.525077895668481065e-01 -9.937030680852816378e-01 2.068139635777292359e-02 -8.238123320535297722e-01
-8.301232156818155739e-01 -8.070061341532622223e-02 8.917708433065303364e-01 6.754157189511904580e-01 8.576182128548766048e-01 1.863689612817349406e-01 -6.340449809689293614e-01 -3.523332485051368645e-01 -1.100225135207272276e-01 2.048983258160301801e-01 -5.743223759093473157e-01 5.496141576258611883e-01 -8.447556808128782180e-01 -1.278108017615780245e-01 -5.913207279003570571e-01 6.855900289661827074e-01 -2.357066140887662253e-01 -9.873945103426893244e-01 -8.900959880053190831e-01 -6.164069147872245358e-01 -2.819689685178920491e-01 5.533313971423345912e-01 5.226291830526283988e-01 8.831019108567028653e-01 6.800925712849924532e-01 6.082976369238780184e-02 8.944776222414120292e-01 9.955841040653964358e-01 8.734820534343158416e-01 -3.068828174590997326e-01
3.204969873115924850e-01 6.458426246746761246e-01 -3.093597698385466832e-01 -1.476017975645789182e-01 4.072294058674080092e-02 -8.298837585807146144e-01 5.927351827505642490e-01 -5.587541299362517311e-01 -9.415123045445925598e-01 -7.452363205121952383e-01 4.623827671982311815e-01 -4.070923354603778188e-02 -5.990774440345713048e-01 -1.940935801948236172e-01 4.933445446115914956e-01 4.870016673931074624e-01 5.309440717716917835e-01 9.525083802666518551e-01 -2.258677822962827653e-02 -6.739939453893348253e-02 -5.796436568363817488e-01 8.648727567447991316e-01 9.075007449082440891e-02 2.119554376289529141e-01 -3.466242769616362240e-01 8.758531496495324253e-01 -4.846407630181958637e-01 3.834337076074112449e-01 6.125896655621958509e-01 2.249644940672834992e-01
-4.685590570941772781e-01 -2.490937511639374456e-03 6.787929703581323526e-01 -3.229852236998719262e-01 9.574523267492689449e-01 -2.604920715432476955e-02 5.812405167153633645e-01 -1.546301520300512045e-01 -2.216366502767240163e-02 -7.645810163258535130e-01 7.445079619453176534e-01 6.357617757852060958e-01 4.388525252001521659e-01 5.755704429344596917e-01 -4.451573947930728692e-01 3.293194195349814085e-02 2.102080357595183802e-01 6.360309377013804166e-01 -1.066039440399376009e-01 -5.378563944038170508e-01 9.277314939348458855e-01 -5.415196934544048712e-01 2.330057546611388475e-01 4.346615153010945920e-01 3.989599728830857672e-01 -2.165755308704276350e-01 -6.750969021492569944e-01 1.418323404852927794e-01 4.642595289342060089e-02 3.813039796943639703e-01
-9.998738469181258637e-01 -3.004578734454181888e-01 -7.297480375844670464e-01 1.020118679903029735e+00 2.810809086488360031e-01 -4.998436713174111423e-01 -7.629154107153742759e-01 5.872123471519472560e-01 -1.052075964979911626e-01 -2.554703150410108647e-01 5.680888983828903394e-01 -1.976310222068218200e-03 -1.178358169721729076e-01 -5.179787170967956739e-02 -2.368410599417441476e-01 4.938319697287839594e-01 -5.459142346474039620e-01 4.750124771162404502e-01 2.785333578570783342e-01 -5.833639200220791521e-01 -2.140356014958220976e-02 1.096803328356602547e-01 -6.851626870327666152e-01 8.661439127766722423e-01 3.052635652759078805e-02 -6.263655222101662812e-01 5.380983110957749949e-01 -3.681479063635996751e-01 -1.049322121349933745e+00 7.868619193462871308e-01
6.108927422697224552e-01 -6.153169252753620810e-01 1.419516359717304943e-01 1.551672608123962349e-01 -6.241325810295679233e-01 -5.845701033718870843e-01 3.945779677205922820e-01 -7.602394347469749736e-01 -9.364382983015092643e-01 -9.101486307165689293e-01 3.260051868443837875e-01 -1.031523193029789898e+00 5.729645007708632498e-01 4.220191328056614455e-01 -1.395253727192528603e-01 8.788211548544807572e-01 -1.030035343660185898e+00 4.965303453150038959e-01 -1.039677746677629466e+00 -4.948774098991649550e-01 -8.957932392166245705e-01 -7.527804284129340218e-01 -6.924927543202844538e-01 -4.779874213445184927e-01 9.170967899654851596e-01 -6.934805207171650387e-01 -7.268036763812112389e-01 -8.801951506464093800e-02 7.689883356123582425e-01 -4.428913858534363479e-01
-1.562255449469805435e-01 -3.604760797060755362e-01 4.549484753059672426e-02 6.296096639018140539e-01 -8.230375631318118668e-01 -3.954024667312667773e-01 -1.806406106353748708e-01 4.600852748414235305e-01 5.563927768057812528e-01 -1.717484868975265588e-01 -4.506872473557984454e-02 -6.816554650931750947e-01 -8.159093646873497585e-01 7.626570065139260945e-01 3.423327059950287410e-01 -2.536991501813360902e-02 7.078838635720564598e-01 -9.491676722844620828e-01 6.135344317251544277e-01 8.459513758806729289e-01 -4.453484314634755664e-02 -8.252138952436541830e-01 4.668530839321319847e-01 7.559403194049649777e-01 -1.348036788931279151e-01 -3.957900121051496911e-01 -3.239633140471279149e-01 -5.330393928968778505e-01 -3.187025254484164571e-02 -8.739113830179819908e-01
-1.751389092709133843e-01 1.034151419259669691e+00 -6.528650025566143933e-01 -5.670411479976067426e-01 -4.406491991131625263e-01 5.606232007336412471e-01 -4.125808877060271884e-01 -5.275738596690686677e-01 8.726839293834852407e-02 3.628900421640590124e-01 -9.530910383498959748e-02 1.716819987377654899e-01 -5.775419482303173480e-01 7.884945959091580470e-01 -6.952171035885299499e-01 1.028555171153292092e+00 6.215261860677300243e-01 1.043661845219821110e-02 2.294015454060770731e-01 -9.349562820783265948e-01 6.854882337380193702e-01 2.091819439817843296e-01 4.647165652058398710e-01 6.715256891540758444e-01 7.129909470757430645e-01 1.719004183427827459e-01 -7.094485936160539463e-01 -2.118223174035842871e-01 3.598106181083143840e-02 7.828987399819934412e-01
6.468490876238078835e-01 8.587360995502874017e-01 -6.047286072647722888e-01 9.557519011940602827e-01 8.011838258071393160e-01 3.026044266050554321e-01 4.194532627663695168e-01 -1.257911377527633823e+00 1.707281366996481198e-01 1.024018459794750202e-01 -4.534823050876613526e-01 -1.451003559031140699e-01 7.919114239039846959e-02 3.841424235587674318e-01 -9.412354843570225338e-01 1.561076240308733876e-01 -8.025909086720062202e-01 -2.933878351925586214e-01 -4.535028604752696091e-01 -9.262773383560415352e-01 -4.413047234773790906e-01 -1.050461023248065173e-01 2.176412718232343946e-01 -2.077863267947609172e-01 -2.759607213803875192e-01 -3.963602211764957750e-01 -5.822280425409235294e-01 -8.253507779393897126e-01 -5.990454018354877119e-01 -7.228545992869886971e-01
1.021448562629792667e+00 2.843783884473271018e-01 2.880898018632458424e-01 -2.877417966574919994e-01 6.287731778483467426e-01 -1.591124644900114016e-01 -5.460691702432468597e-01 3.849131500901616931e-01 7.148077396274959971e-02 -2.645323780774641031e-01 -3.367873331485111699e-01 8.969259806005745739e-02 -1.042675407572471458e-01 3.868929765650774288e-01 8.487184122371035366e-01 8.745591032525833475e-01 3.127474305129344656e-01 3.266849867590221890e-01 1.722267437600841222e-02 7.234408373772792666e-01 -5.568441402960055964e-01 8.418725061344340954e-01 -4.875569185523648819e-01 7.883296508668629077e-01 -9.453050328022470916e-01 6.944665189759440249e-01 -4.772216038956545447e-01 3.710187102781827284e-01 -2.767111545592279009e-01 4.131446566036299228e-01
-5.825952906344256110e-01 -1.679152723668289604e-01 -4.961812684164995657e-02 9.943826777327380295e-01 1.577735868623062754e-01 5.900603718924237739e-01 -3.270740620259491860e-01 -1.879817222813328081e-01 -7.943379061258614149e-01 9.498155453360540568e-01 -2.910970263426455595e-01 -4.796092155375021870e-01 4.478114018064396351e-01 -5.117151401064934380e-01 -5.310910572411592367e-01 1.002219917903881541e+00 1.960128694401014615e-01 -6.343220364553157076e-01 -1.258831390227066027e+00 -8.868300070501924370e-01 -4.299158382622041974e-01 1.451303700200166635e-01 -8.203249662809068976e-01 4.334344811090054539e-01 -7.908650251605124915e-01 3.013752732338447760e-01 8.494181399808719002e-01 -7.472820592206572687e-01 1.748694929320435479e-02 4.125871698898788686e-01
-5.346655332236984748e-01 6.413895569799029639e-01 -1.175969722904055770e+00 -6.123284601683230965e-01 5.193001261365118859e-01 2.837281116858924035e-01 -3.445308700557901394e-01 1.328115871165177486e-01 -1.043213822393304957e+00 -6.560142681059814851e-02 1.934526023561757291e-01 1.527154246938802473e-01 -3.163649809609699881e-01 8.659046643616821193e-01 1.373375858943231276e-01 -4.115475072509529042e-01 -2.579650092827548424e-01 -1.299524445613371715e-01 -8.123246956689921250e-01 -4.457133380973719028e-01 1.053031655956782719e+00 7.607099612782970421e-01 5.757937965587822671e-01 -9.852680446653836466e-01 4.043783990483503232e-01 3.405323349124840249e-01 2.261340045122243667e-02 -6.948271909357213172e-01 -2.421688583308514997e-01 -7.138499665588322884e-02
5.572460800958664029e-01 9.823163620242153504e-02 6.684728767142315009e-01 -2.898307940836464813e-01 1.781042771912365597e-01 -4.786193161258729400e-01 -5.556635280558070988e-01 5.704545654416730560e-01 -2.328246839468369467e-01 -5.739056711314028947e-01 -6.578496857739105641e-01 2.893460679080211984e-01 -4.586610320982889011e-01 4.440175473545771578e-01 -9.983160807992585983e-01 -1.201423325512117751e-01 -4.498586051161473226e-02 -8.795838660373025419e-01 -3.092371985892977126e-01 -2.714829980517582397e-01 -5.641267117912509566e-01 5.046767194259521583e-01 9.445144693371164690e-01 3.468101843618455193e-01 7.422383455366816651e-01 1.872170307726229999e-01 -5.641435243302094643e-02 7.710703013151969376e-01 3.210686412266162693e-01 -6.340700724148738976e-01
7.632128118802151695e-01 -4.955991797898884332e-01 -1.794907979502846640e-01 5.442072193021773030e-01 6.722784027555543940e-01 -5.635223667747354392e-01 -3.335122217068394179e-01 -7.313082637241745676e-01 5.952508060386951100e-02 6.569419675014143145e-01 1.041943120121140431e+00 1.436684508535608362e-01 -8.770390984491870101e-02 2.427283528071314256e-01 1.085056106154609762e-01 -2.732421670931885482e-01 6.117534572288195471e-02 3.794449071960666608e-01 -1.193678139206678424e+00 9.075757360442827659e-01 -1.413679382894253433e-01 -2.229069886267663267e-02 -4.082596170383194778e-01 8.210704313427769074e-01 -3.693559399507809898e-02 2.447366288344433594e-01 1.981383403230865259e-01 -1.835949039026878449e-01 -8.642333233447284657e-01 1.774279650690187005e-01
-7.418904991980813657e-01 6.452435865576935381e-01 2.871714806128671249e-01 -3.612924054120185136e-01 1.513458040004763971e-01 9.243512937177230659e-01 -5.306843579188472715e-01 2.802723209637961177e-01 -2.991158674331319545e-01 -5.455197808002251181e-01 2.403458237314843107e-02 7.351228076028798464e-01 -6.553824062954247687e-01 1.836948975374568527e-01 4.924456972159566570e-01 2.900846892371460317e-01 7.347370168448366101e-01 -5.355263961395992922e-01 -8.748380146556171688e-01 -7.140757714913299470e-01 -2.713448577355191405e-01 -2.583650913335677757e-01 -4.843184790150650287e-01 -7.255578729202619703e-01 7.258825194346582022e-01 9.406972038452463547e-01 -9.450059158930264047e-01 -5.926319392174062006e-01 -2.382952158666646475e-02 -1.004337468096529740e-01
